{"learner":{"attributes":{"scikit_learn":"{\"_estimator_type\": \"classifier\"}"},"feature_names":["arm_left_1_joint","arm_left_2_joint","arm_left_3_joint","arm_left_4_joint","arm_left_5_joint","arm_left_6_joint","arm_left_7_joint","arm_right_1_joint","arm_right_2_joint","arm_right_3_joint","arm_right_4_joint","arm_right_5_joint","arm_right_6_joint","arm_right_7_joint","torso_lift_joint","head_1_joint","head_2_joint"],"feature_types":["float","float","float","float","float","float","float","float","float","float","float","float","float","float","float","float","float"],"gradient_booster":{"model":{"cats":{"enc":[],"feature_segments":[],"sorted_idx":[]},"gbtree_model_param":{"num_parallel_tree":"1","num_trees":"100"},"iteration_indptr":[0,1,2,3,4,5,6,7,8,9,10,11,12,13,14,15,16,17,18,19,20,21,22,23,24,25,26,27,28,29,30,31,32,33,34,35,36,37,38,39,40,41,42,43,44,45,46,47,48,49,50,51,52,53,54,55,56,57,58,59,60,61,62,63,64,65,66,67,68,69,70,71,72,73,74,75,76,77,78,79,80,81,82,83,84,85,86,87,88,89,90,91,92,93,94,95,96,97,98,99,100],"tree_info":[0,0,0,0,0,0,0,0,0,0,0,0,0,0,0,0,0,0,0,0,0,0,0,0,0,0,0,0,0,0,0,0,0,0,0,0,0,0,0,0,0,0,0,0,0,0,0,0,0,0,0,0,0,0,0,0,0,0,0,0,0,0,0,0,0,0,0,0,0,0,0,0,0,0,0,0,0,0,0,0,0,0,0,0,0,0,0,0,0,0,0,0,0,0,0,0,0,0,0,0],"trees":[{"base_weights":[3.972585E-9,6.6064173E-1,-5.4783744E-1,1.6495239E0,-1.5227362E-2,-1.2828674E-2,-8.637888E-1,2.6989976E-1,1.9056463E0,4.1315857E-1,-4.1132033E-1,-9.143426E-1,3.9683124E-1,-9.735145E-1,-4.2210215E-1,1.4386379E0,-5.6119823E-1,2.26689E0,1.326699E0,-7.924653E-3,6.5310496E-1,-9.306765E-1,-1.13623984E-1,5.244648E-2,-1.078E0,1.3849298E0,-9.0224487E-1,-1.2895578E0,-8.1316787E-1,5.3333336E-1,-6.787192E-1,1.9635794E0,4.6653107E-1,-4.9828127E-2,-8.734028E-1,2.3447795E0,1.2562246E0,1.9286628E0,7.2055465E-1,8.8733554E-1,-1.478766E-1,1.1859643E0,1.2291176E-2,-1.055517E0,-4.18302E-1,5.3323746E-1,-8.607487E-1,8.961385E-1,-6.8932116E-1,-5.990572E-1,-1.2289805E0,1.21483445E-1,1.9048051E0,-1.1460593E0,-4.178413E-1,-1.0036547E0,-1.3850095E0,-5.5849403E-1,-1.2811747E0,1.2424113E0,-4.0855587E-1,6.7816205E-2,-9.0697837E-1,2.108618E-1,1.4601193E-1,-2.583815E-3,1.4177673E-1,-8.0547534E-2,4.8503127E-2,-1.0788866E-1,-4.48264E-2,2.47296E-1,2.0997305E-1,5.016015E-2,2.2618525E-1,1.01198904E-1,2.1336344E-1,3.393371E-2,1.5450935E-1,1.7290138E-1,2.340244E-3,-4.2917125E-2,4.8102427E-2,1.6815911E-1,5.2817363E-2,2.583008E-2,-5.4846503E-2,-5.0831366E-2,-1.2393242E-1,-1.19686805E-1,5.8173545E-4,1.4205669E-1,-3.3606406E-2,-1.0932715E-1,-4.9175E-2,-1.245399E-2,1.5079789E-1,-1.1075151E-1,-6.981088E-4,-8.778936E-2,5.5555116E-2,-9.4347715E-2,-1.3393037E-1,1.0309938E-1,-2.8782848E-2,2.2606087E-1,1.2953912E-1,-1.2414968E-1,-5.591408E-2,7.037125E-2,-9.0714835E-2,-6.738339E-2,-1.1073219E-1,-1.13474205E-1,-1.4711599E-1,-6.0115256E-3,-9.419467E-2,-1.0209997E-1,-1.4156596E-1,1.7134918E-1,2.4304371E-2,1.185113E-2,-1.14358604E-1,1.0269492E-1,-5.741427E-2,-4.466494E-2,-1.1056876E-1],"categories":[],"categories_nodes":[],"categories_segments":[],"categories_sizes":[],"default_left":[0,0,0,0,0,0,0,0,0,0,0,0,0,0,0,0,0,0,0,0,0,0,0,0,0,0,0,0,0,0,0,0,0,0,0,0,0,0,0,0,0,0,0,0,0,0,0,0,0,0,0,0,0,0,0,0,0,0,0,0,0,0,0,0,0,0,0,0,0,0,0,0,0,0,0,0,0,0,0,0,0,0,0,0,0,0,0,0,0,0,0,0,0,0,0,0,0,0,0,0,0,0,0,0,0,0,0,0,0,0,0,0,0,0,0,0,0,0,0,0,0,0,0,0,0,0,0],"id":0,"left_children":[1,3,5,7,9,11,13,15,17,19,21,23,25,27,29,31,33,35,37,39,41,43,45,47,49,51,53,55,57,59,61,63,65,67,69,71,73,75,77,79,81,83,85,87,89,91,93,95,97,99,101,103,105,107,109,111,113,115,117,119,121,123,125,-1,-1,-1,-1,-1,-1,-1,-1,-1,-1,-1,-1,-1,-1,-1,-1,-1,-1,-1,-1,-1,-1,-1,-1,-1,-1,-1,-1,-1,-1,-1,-1,-1,-1,-1,-1,-1,-1,-1,-1,-1,-1,-1,-1,-1,-1,-1,-1,-1,-1,-1,-1,-1,-1,-1,-1,-1,-1,-1,-1,-1,-1,-1,-1],"loss_changes":[6.939973E4,5.8097832E4,1.771935E4,1.2469711E4,8.761871E3,1.4374611E4,3.1936328E3,5.3693774E3,6.222117E3,2.5064868E3,4.148085E3,1.924169E3,3.4352895E4,2.6741523E3,3.216212E3,1.1713472E3,5.1575867E2,1.4397734E3,4.1724004E3,1.1285015E3,5.396012E3,6.248457E2,8.243142E3,1.103009E3,7.5132324E2,9.984016E3,1.3650576E3,4.8346094E2,4.1737812E3,1.8555518E3,1.76198E3,1.05822754E2,3.779229E2,4.9581754E2,1.7475757E2,5.2925E2,9.956633E2,1.076084E3,1.7915422E3,8.85381E2,1.3781604E3,2.8120273E3,9.900215E2,7.898926E2,6.329514E2,7.052011E3,6.785547E2,5.1512317E2,2.6763354E2,8.036515E2,2.4777539E2,1.6503406E3,2.3321719E3,4.3007617E2,2.1259004E3,1.514253E2,2.8545703E2,4.3348384E3,4.3038867E2,7.4570605E2,4.625816E2,1.4919248E3,7.23834E2,0E0,0E0,0E0,0E0,0E0,0E0,0E0,0E0,0E0,0E0,0E0,0E0,0E0,0E0,0E0,0E0,0E0,0E0,0E0,0E0,0E0,0E0,0E0,0E0,0E0,0E0,0E0,0E0,0E0,0E0,0E0,0E0,0E0,0E0,0E0,0E0,0E0,0E0,0E0,0E0,0E0,0E0,0E0,0E0,0E0,0E0,0E0,0E0,0E0,0E0,0E0,0E0,0E0,0E0,0E0,0E0,0E0,0E0,0E0,0E0,0E0,0E0,0E0,0E0],"parents":[2147483647,0,0,1,1,2,2,3,3,4,4,5,5,6,6,7,7,8,8,9,9,10,10,11,11,12,12,13,13,14,14,15,15,16,16,17,17,18,18,19,19,20,20,21,21,22,22,23,23,24,24,25,25,26,26,27,27,28,28,29,29,30,30,31,31,32,32,33,33,34,34,35,35,36,36,37,37,38,38,39,39,40,40,41,41,42,42,43,43,44,44,45,45,46,46,47,47,48,48,49,49,50,50,51,51,52,52,53,53,54,54,55,55,56,56,57,57,58,58,59,59,60,60,61,61,62,62],"right_children":[2,4,6,8,10,12,14,16,18,20,22,24,26,28,30,32,34,36,38,40,42,44,46,48,50,52,54,56,58,60,62,64,66,68,70,72,74,76,78,80,82,84,86,88,90,92,94,96,98,100,102,104,106,108,110,112,114,116,118,120,122,124,126,-1,-1,-1,-1,-1,-1,-1,-1,-1,-1,-1,-1,-1,-1,-1,-1,-1,-1,-1,-1,-1,-1,-1,-1,-1,-1,-1,-1,-1,-1,-1,-1,-1,-1,-1,-1,-1,-1,-1,-1,-1,-1,-1,-1,-1,-1,-1,-1,-1,-1,-1,-1,-1,-1,-1,-1,-1,-1,-1,-1,-1,-1,-1,-1],"split_conditions":[1.7551944E0,-1.4520807E0,-1.5373157E0,-3.1520805E-1,-7.5400245E-1,-2.5410347E0,1.6778384E0,-4.778609E-1,-1.8328563E0,-2.1587996E0,-2.1306534E0,-1.9908929E0,3.8534003E-1,-2.366197E0,-1.9287016E0,-8.5036945E-1,-1.5084625E0,1.6087188E0,7.2160697E-1,-2.0502028E0,4.438243E-1,1.6997526E0,4.1439193E-1,-1.2888471E0,-1.8616797E0,-1.6905032E0,9.10929E-1,-1.8319436E0,8.534312E-1,-1.0603882E0,2.4495778E0,-1.2213262E0,-4.4333318E-1,-1.8378191E0,-4.4333318E-1,-2.0423713E0,4.3533522E-1,-1.2544256E-1,1.0433059E0,5.276476E-1,1.2831634E0,-1.051577E0,1.0148693E0,-1.6565579E0,1.7234895E-1,-1.2313054E0,6.065762E-1,-3.97862E0,-3.4214275E0,1.7426254E0,-1.7660311E0,-1.0915642E0,-1.870168E0,2.004592E0,1.0603185E0,2.4495778E0,2.5128057E0,-8.696712E-1,-1.6131091E0,3.7603436E0,3.5081382E0,-1.4504558E0,-1.6997437E0,2.108618E-1,1.4601193E-1,-2.583815E-3,1.4177673E-1,-8.0547534E-2,4.8503127E-2,-1.0788866E-1,-4.48264E-2,2.47296E-1,2.0997305E-1,5.016015E-2,2.2618525E-1,1.01198904E-1,2.1336344E-1,3.393371E-2,1.5450935E-1,1.7290138E-1,2.340244E-3,-4.2917125E-2,4.8102427E-2,1.6815911E-1,5.2817363E-2,2.583008E-2,-5.4846503E-2,-5.0831366E-2,-1.2393242E-1,-1.19686805E-1,5.8173545E-4,1.4205669E-1,-3.3606406E-2,-1.0932715E-1,-4.9175E-2,-1.245399E-2,1.5079789E-1,-1.1075151E-1,-6.981088E-4,-8.778936E-2,5.5555116E-2,-9.4347715E-2,-1.3393037E-1,1.0309938E-1,-2.8782848E-2,2.2606087E-1,1.2953912E-1,-1.2414968E-1,-5.591408E-2,7.037125E-2,-9.0714835E-2,-6.738339E-2,-1.1073219E-1,-1.13474205E-1,-1.4711599E-1,-6.0115256E-3,-9.419467E-2,-1.0209997E-1,-1.4156596E-1,1.7134918E-1,2.4304371E-2,1.185113E-2,-1.14358604E-1,1.0269492E-1,-5.741427E-2,-4.466494E-2,-1.1056876E-1],"split_indices":[7,8,1,7,8,0,9,9,8,0,0,2,0,0,8,10,1,7,7,9,0,9,0,3,8,0,2,3,0,10,7,10,7,0,7,8,9,7,9,7,9,1,7,9,7,1,2,0,0,9,10,2,1,9,0,7,7,1,3,7,7,10,10,0,0,0,0,0,0,0,0,0,0,0,0,0,0,0,0,0,0,0,0,0,0,0,0,0,0,0,0,0,0,0,0,0,0,0,0,0,0,0,0,0,0,0,0,0,0,0,0,0,0,0,0,0,0,0,0,0,0,0,0,0,0,0,0],"split_type":[0,0,0,0,0,0,0,0,0,0,0,0,0,0,0,0,0,0,0,0,0,0,0,0,0,0,0,0,0,0,0,0,0,0,0,0,0,0,0,0,0,0,0,0,0,0,0,0,0,0,0,0,0,0,0,0,0,0,0,0,0,0,0,0,0,0,0,0,0,0,0,0,0,0,0,0,0,0,0,0,0,0,0,0,0,0,0,0,0,0,0,0,0,0,0,0,0,0,0,0,0,0,0,0,0,0,0,0,0,0,0,0,0,0,0,0,0,0,0,0,0,0,0,0,0,0,0],"sum_hessian":[1.9175006E5,8.692558E4,1.04824484E5,3.529016E4,5.1635414E4,3.892047E4,6.5904016E4,5.525997E3,2.9764164E4,2.4806465E4,2.682895E4,1.215983E4,2.6760639E4,5.2788793E4,1.3115225E4,2.296207E3,3.22979E3,1.8326271E4,1.1437892E4,9.004822E3,1.5801644E4,9.774459E3,1.705449E4,1.7605052E3,1.0399325E4,1.5199548E4,1.1561091E4,1.7765643E4,3.502315E4,2.7765408E3,1.0338684E4,1.4903773E3,8.0582965E2,1.2248035E3,2.0049866E3,1.7013744E4,1.3125292E3,5.737641E3,5.70025E3,1.2166542E3,7.7881685E3,8.627075E3,7.1745684E3,7.8586367E3,1.9158228E3,9.140726E3,7.9137646E3,8.235665E2,9.369387E2,2.4937095E3,7.905615E3,4.4313438E3,1.0768204E4,7.689417E3,3.8716733E3,4.44956E3,1.3316083E4,2.2682354E4,1.2340794E4,1.5838555E3,1.1926854E3,2.4210842E3,7.9175996E3,1.1545751E3,3.358023E2,5.316271E2,2.7420258E2,5.074186E2,7.173849E2,1.3506395E3,6.543471E2,1.1164647E4,5.8490957E3,7.507015E2,5.618277E2,1.0495919E3,4.6880493E3,3.8989978E3,1.8012522E3,6.157574E2,6.008967E2,5.3814653E3,2.406703E3,4.919108E3,3.7079668E3,4.987179E3,2.187389E3,1.9769431E3,5.8816934E3,6.749602E2,1.2408625E3,4.523144E3,4.617581E3,4.8534336E3,3.060331E3,3.0895728E2,5.1460925E2,5.805233E2,3.5641544E2,2.0088215E3,4.8488797E2,2.2060845E3,5.699531E3,1.3748479E3,3.056496E3,6.7970605E3,3.9711438E3,6.6129805E3,1.0764369E3,1.1759072E3,2.695766E3,1.0658906E3,3.3836694E3,3.4136304E3,9.902452E3,9.863623E3,1.2818731E4,4.208195E3,8.1325996E3,1.0759575E3,5.0789798E2,6.95094E2,4.975914E2,9.70495E2,1.4505892E3,2.388247E3,5.5293525E3],"tree_param":{"num_deleted":"0","num_feature":"17","num_nodes":"127","size_leaf_vector":"1"}},{"base_weights":[-1.6107466E-3,5.7903355E-1,-5.0994486E-1,1.4316746E0,-1.9454656E-2,-4.5965474E-2,-8.220085E-1,1.5454425E-1,1.6288754E0,4.158589E-1,-3.322729E-1,-8.5818255E-1,3.2105863E-1,-9.3207794E-1,-4.4948342E-1,1.115887E0,-6.5539265E-1,1.9497267E0,1.1673142E0,5.4656405E-2,6.377641E-1,-7.7572906E-1,-4.496309E-2,-6.927263E-2,-1.0208031E0,1.1669015E0,-8.5618573E-1,-1.2027398E0,-7.7891374E-1,1.4904185E-2,-8.389823E-1,1.5208522E0,8.7286554E-2,-1.1206683E0,-3.3789378E-1,2.0346951E0,1.0596403E0,1.6556652E0,6.4706326E-1,2.909772E-1,-4.234843E-1,1.132202E0,6.450272E-2,-8.9614564E-1,-2.7520958E-1,6.168997E-1,-7.3992056E-1,5.713599E-1,-7.2101533E-1,-4.639062E-1,-1.1326579E0,5.4292154E-2,1.5714931E0,-4.806854E-1,-1.1551211E0,-9.3665504E-1,-1.2997366E0,-5.298377E-1,-1.1913269E0,8.546965E-1,-4.4615486E-1,2.9157728E-1,-9.636584E-1,1.6823018E-1,6.874875E-2,-1.9277332E-2,9.213876E-2,-5.704378E-2,-1.19279996E-1,3.3860616E-2,-1.0337474E-1,1.2919056E-1,2.085469E-1,3.6716994E-2,1.9013706E-1,8.098565E-2,1.8522556E-1,2.970982E-2,1.3442867E-1,-5.150393E-3,8.556656E-2,-8.017457E-2,4.6643943E-2,1.7374882E-1,7.017349E-2,3.152357E-2,-4.864487E-2,-3.4368202E-2,-1.0903255E-1,-1.03958204E-1,1.2364769E-2,1.3893704E-1,-2.842767E-2,-9.617057E-2,-3.6984272E-2,-4.2500135E-2,1.0607518E-1,-5.2093095E-3,-1.07455365E-1,-7.460389E-2,7.56289E-2,-1.22159354E-1,-7.6636754E-2,7.86165E-2,-3.48158E-2,1.9867204E-1,1.1175656E-1,-8.902468E-2,4.7269262E-2,-5.4635685E-2,-1.24069706E-1,-6.354985E-2,-1.0227485E-1,-1.126855E-1,-1.4047003E-1,-9.383037E-3,-9.0722695E-2,-1.3435376E-1,-9.282192E-2,2.7731901E-2,1.6104761E-1,3.5943653E-2,-8.4415264E-2,9.6451685E-2,-8.256468E-2,-4.074552E-2,-1.0314198E-1],"categories":[],"categories_nodes":[],"categories_segments":[],"categories_sizes":[],"default_left":[0,0,0,0,0,0,0,0,0,0,0,0,0,0,0,0,0,0,0,0,0,0,0,0,0,0,0,0,0,0,0,0,0,0,0,0,0,0,0,0,0,0,0,0,0,0,0,0,0,0,0,0,0,0,0,0,0,0,0,0,0,0,0,0,0,0,0,0,0,0,0,0,0,0,0,0,0,0,0,0,0,0,0,0,0,0,0,0,0,0,0,0,0,0,0,0,0,0,0,0,0,0,0,0,0,0,0,0,0,0,0,0,0,0,0,0,0,0,0,0,0,0,0,0,0,0,0],"id":1,"left_children":[1,3,5,7,9,11,13,15,17,19,21,23,25,27,29,31,33,35,37,39,41,43,45,47,49,51,53,55,57,59,61,63,65,67,69,71,73,75,77,79,81,83,85,87,89,91,93,95,97,99,101,103,105,107,109,111,113,115,117,119,121,123,125,-1,-1,-1,-1,-1,-1,-1,-1,-1,-1,-1,-1,-1,-1,-1,-1,-1,-1,-1,-1,-1,-1,-1,-1,-1,-1,-1,-1,-1,-1,-1,-1,-1,-1,-1,-1,-1,-1,-1,-1,-1,-1,-1,-1,-1,-1,-1,-1,-1,-1,-1,-1,-1,-1,-1,-1,-1,-1,-1,-1,-1,-1,-1,-1],"loss_changes":[5.638237E4,4.550258E4,1.4747406E4,9.261805E3,7.134851E3,1.2210119E4,2.4965234E3,3.831662E3,4.7154766E3,1.7559602E3,3.8842878E3,1.635417E3,2.809285E4,1.9477305E3,2.5125874E3,9.3715894E2,3.9418848E2,1.4190312E3,3.318623E3,9.4231305E2,3.8464517E3,7.2217725E2,8.510617E3,9.105268E2,6.578535E2,7.389959E3,1.3235059E3,4.371621E2,3.083246E3,2.4541528E3,1.0651367E3,2.1606104E2,1.4890953E2,4.230005E1,7.483804E2,6.4421875E2,9.5499194E2,1.1190703E3,1.543698E3,1.0793615E3,9.2894006E2,1.8972559E3,8.6844336E2,1.0360698E3,7.0924194E2,6.597665E3,7.404507E2,5.3673206E2,2.5557953E2,6.0972925E2,2.8575977E2,1.2900419E3,2.2669023E3,2.0425508E3,3.4141504E2,1.17092285E2,2.2425E2,3.0800303E3,4.5143066E2,9.798463E2,1.3122466E3,5.655151E2,2.5603467E2,0E0,0E0,0E0,0E0,0E0,0E0,0E0,0E0,0E0,0E0,0E0,0E0,0E0,0E0,0E0,0E0,0E0,0E0,0E0,0E0,0E0,0E0,0E0,0E0,0E0,0E0,0E0,0E0,0E0,0E0,0E0,0E0,0E0,0E0,0E0,0E0,0E0,0E0,0E0,0E0,0E0,0E0,0E0,0E0,0E0,0E0,0E0,0E0,0E0,0E0,0E0,0E0,0E0,0E0,0E0,0E0,0E0,0E0,0E0,0E0,0E0,0E0,0E0,0E0],"parents":[2147483647,0,0,1,1,2,2,3,3,4,4,5,5,6,6,7,7,8,8,9,9,10,10,11,11,12,12,13,13,14,14,15,15,16,16,17,17,18,18,19,19,20,20,21,21,22,22,23,23,24,24,25,25,26,26,27,27,28,28,29,29,30,30,31,31,32,32,33,33,34,34,35,35,36,36,37,37,38,38,39,39,40,40,41,41,42,42,43,43,44,44,45,45,46,46,47,47,48,48,49,49,50,50,51,51,52,52,53,53,54,54,55,55,56,56,57,57,58,58,59,59,60,60,61,61,62,62],"right_children":[2,4,6,8,10,12,14,16,18,20,22,24,26,28,30,32,34,36,38,40,42,44,46,48,50,52,54,56,58,60,62,64,66,68,70,72,74,76,78,80,82,84,86,88,90,92,94,96,98,100,102,104,106,108,110,112,114,116,118,120,122,124,126,-1,-1,-1,-1,-1,-1,-1,-1,-1,-1,-1,-1,-1,-1,-1,-1,-1,-1,-1,-1,-1,-1,-1,-1,-1,-1,-1,-1,-1,-1,-1,-1,-1,-1,-1,-1,-1,-1,-1,-1,-1,-1,-1,-1,-1,-1,-1,-1,-1,-1,-1,-1,-1,-1,-1,-1,-1,-1,-1,-1,-1,-1,-1,-1],"split_conditions":[1.7980468E0,-1.4520807E0,-1.4704915E0,-3.5794216E-1,-8.5030514E-1,-2.5124316E0,1.5240989E0,-2.8028238E-1,-1.8616797E0,-2.0136487E0,-1.8975526E0,-1.859746E0,4.1439193E-1,-2.1587996E0,-1.3359742E0,-7.075093E-1,-1.8378191E0,1.6087188E0,7.4204636E-1,9.7247356E-1,4.438243E-1,1.7209543E0,3.8534003E-1,-1.2232124E0,-2.0423713E0,-1.7196571E0,-1.3551137E0,-1.7939812E0,7.953067E-1,-1.595026E0,-2.205603E0,-6.949821E-1,-4.4333318E-1,-2.1660113E0,4.438243E-1,-2.3011605E-1,3.261204E-1,-1.4619324E-1,9.5584416E-1,-9.1692764E-1,1.1306595E0,-1.4418283E0,1.0148693E0,-1.6342719E0,1.7234895E-1,-1.1461487E0,6.933088E-1,-4.096159E0,-2.10904E0,1.785969E0,-2.9806197E0,-8.7397987E-1,-1.9362526E0,1.1069324E0,6.7771286E-1,2.42864E0,2.896126E0,-7.931635E-1,7.3623955E-1,2.249135E0,2.7479553E0,3.5710106E0,2.113275E0,1.6823018E-1,6.874875E-2,-1.9277332E-2,9.213876E-2,-5.704378E-2,-1.19279996E-1,3.3860616E-2,-1.0337474E-1,1.2919056E-1,2.085469E-1,3.6716994E-2,1.9013706E-1,8.098565E-2,1.8522556E-1,2.970982E-2,1.3442867E-1,-5.150393E-3,8.556656E-2,-8.017457E-2,4.6643943E-2,1.7374882E-1,7.017349E-2,3.152357E-2,-4.864487E-2,-3.4368202E-2,-1.0903255E-1,-1.03958204E-1,1.2364769E-2,1.3893704E-1,-2.842767E-2,-9.617057E-2,-3.6984272E-2,-4.2500135E-2,1.0607518E-1,-5.2093095E-3,-1.07455365E-1,-7.460389E-2,7.56289E-2,-1.22159354E-1,-7.6636754E-2,7.86165E-2,-3.48158E-2,1.9867204E-1,1.1175656E-1,-8.902468E-2,4.7269262E-2,-5.4635685E-2,-1.24069706E-1,-6.354985E-2,-1.0227485E-1,-1.126855E-1,-1.4047003E-1,-9.383037E-3,-9.0722695E-2,-1.3435376E-1,-9.282192E-2,2.7731901E-2,1.6104761E-1,3.5943653E-2,-8.4415264E-2,9.6451685E-2,-8.256468E-2,-4.074552E-2,-1.0314198E-1],"split_indices":[7,8,1,7,8,0,9,9,8,0,0,2,0,0,10,10,0,7,7,7,0,9,0,3,8,0,3,3,0,8,8,9,7,1,0,7,9,7,9,10,9,1,7,9,7,1,2,0,1,9,0,2,1,2,0,7,7,1,2,9,7,7,7,0,0,0,0,0,0,0,0,0,0,0,0,0,0,0,0,0,0,0,0,0,0,0,0,0,0,0,0,0,0,0,0,0,0,0,0,0,0,0,0,0,0,0,0,0,0,0,0,0,0,0,0,0,0,0,0,0,0,0,0,0,0,0,0],"split_type":[0,0,0,0,0,0,0,0,0,0,0,0,0,0,0,0,0,0,0,0,0,0,0,0,0,0,0,0,0,0,0,0,0,0,0,0,0,0,0,0,0,0,0,0,0,0,0,0,0,0,0,0,0,0,0,0,0,0,0,0,0,0,0,0,0,0,0,0,0,0,0,0,0,0,0,0,0,0,0,0,0,0,0,0,0,0,0,0,0,0,0,0,0,0,0,0,0,0,0,0,0,0,0,0,0,0,0,0,0,0,0,0,0,0,0,0,0,0,0,0,0,0,0,0,0,0,0],"sum_hessian":[1.9102023E5,8.916801E4,1.01852234E5,3.677492E4,5.2393082E4,4.0957438E4,6.0894793E4,4.9191104E3,3.1855812E4,2.1907115E4,3.0485969E4,1.2747075E4,2.8210363E4,4.7004836E4,1.3889961E4,2.249144E3,2.6699663E3,1.8790498E4,1.3065315E4,8.337361E3,1.3569753E4,1.1985272E4,1.8500697E4,2.178772E3,1.0568304E4,1.6415754E4,1.1794608E4,1.6984346E4,3.0020488E4,6.3363203E3,7.55364E3,1.6134442E3,6.3569977E2,1.0819313E3,1.5880352E3,1.7151879E4,1.638619E3,6.7381455E3,6.32717E3,5.579893E3,2.757468E3,7.28525E3,6.2845034E3,9.66036E3,2.3249116E3,9.476034E3,9.024662E3,1.0988134E3,1.0799586E3,1.7685067E3,8.799797E3,4.3778887E3,1.2037865E4,5.228971E3,6.565637E3,4.5401973E3,1.2444149E4,1.8718047E4,1.130244E4,2.2454712E3,4.090849E3,7.5013135E2,6.803509E3,1.3507433E3,2.62701E2,4.764834E2,1.592164E2,1.264281E2,9.555031E2,8.054756E2,7.825595E2,1.0991068E3,1.6052771E4,8.9980676E2,7.3881226E2,1.2717408E3,5.466405E3,4.2136113E3,2.1135588E3,3.4738975E3,2.1059956E3,1.9350679E3,8.2240015E2,3.0265454E3,4.2587046E3,4.3192705E3,1.9652328E3,2.5130942E3,7.1472666E3,7.96633E2,1.5282786E3,5.1020854E3,4.3739487E3,5.6419077E3,3.3827544E3,3.619813E2,7.368321E2,3.738162E2,7.061424E2,1.436702E3,3.3180472E2,7.078739E3,1.7210582E3,1.5529071E3,2.8249817E3,6.2851694E3,5.752696E3,3.6577192E3,1.5712521E3,8.101113E2,5.755526E3,1.01123987E3,3.5289573E3,4.705551E3,7.7385986E3,8.685137E3,1.003291E4,7.157588E3,4.1448525E3,1.273754E3,9.7171704E2,1.3527767E3,2.7380725E3,4.6823517E2,2.818962E2,7.396092E2,6.0639E3],"tree_param":{"num_deleted":"0","num_feature":"17","num_nodes":"127","size_leaf_vector":"1"}},{"base_weights":[-2.535178E-3,5.130013E-1,-4.7653195E-1,1.2224258E0,-5.921867E-2,3.2605693E-2,-7.2278064E-1,2.3750038E-1,1.4040918E0,2.4200578E-1,-3.9613932E-1,-7.9839236E-1,3.617991E-1,-1.024465E0,-5.7028925E-1,1.1275702E0,-5.2776885E-1,1.7028102E0,9.18096E-1,8.2761854E-1,1.0933527E-1,-8.935024E-1,-1.6214351E-1,1.8399464E-1,-9.513641E-1,1.1339749E0,-7.508528E-1,-1.1470677E0,-6.6988015E-1,-3.0723944E-1,-1.0048105E0,1.4673486E0,4.0160337E-1,6.78868E-3,-7.8631574E-1,1.8035438E0,8.5669583E-1,1.4653196E0,4.9118388E-1,1.5579966E0,1.2276346E-1,-1.644614E-1,6.0464615E-1,-1.0099424E0,-4.8120144E-1,2.9393327E-1,-8.219347E-1,8.23716E-1,-6.9405806E-1,-1.0569967E0,-3.965637E-1,4.8550814E-2,1.5990287E0,-3.7039697E-1,-1.0582525E0,-8.917967E-1,-1.2420411E0,-1.6454895E-1,-1.0541607E0,1.7435843E-1,-6.7702407E-1,-1.1603401E0,-7.414369E-1,1.6355912E-1,7.590453E-2,-1.0523593E-2,1.2208631E-1,-7.362158E-2,5.0727136E-2,3.4201809E-3,-9.0219356E-2,1.9121145E-1,1.5549068E-1,2.5447393E-2,1.6584414E-1,8.659901E-2,1.6390024E-1,1.0885145E-2,1.1221019E-1,1.6862808E-1,1.08058624E-1,3.321315E-2,-4.7467396E-2,-6.037111E-2,5.8276556E-3,-6.080341E-2,1.0506576E-1,-4.5629725E-2,-1.13550805E-1,-9.795866E-3,-1.0280881E-1,1.11386195E-1,-2.5863335E-2,-9.527224E-2,-2.8863547E-2,-1.5399188E-2,1.3568288E-1,-1.0563828E-1,8.258334E-3,-1.11851685E-1,-5.6414116E-2,3.7646245E-2,-8.928936E-2,9.1901414E-2,-2.4158513E-2,1.832696E-1,1.2497618E-1,-8.0945335E-2,4.9427405E-2,-1.11177E-2,-1.12739615E-1,-5.1595755E-2,-9.7197495E-2,-7.995461E-2,-1.2839806E-1,5.3893488E-2,-7.660835E-2,-5.2462112E-2,-1.23223186E-1,-2.8716052E-2,6.0184825E-2,-1.4803231E-2,-8.1237085E-2,-4.259893E-2,-1.2219866E-1,-1.42810745E-2,-1.0303538E-1],"categories":[],"categories_nodes":[],"categories_segments":[],"categories_sizes":[],"default_left":[0,0,0,0,0,0,0,0,0,0,0,0,0,0,0,0,0,0,0,0,0,0,0,0,0,0,0,0,0,0,0,0,0,0,0,0,0,0,0,0,0,0,0,0,0,0,0,0,0,0,0,0,0,0,0,0,0,0,0,0,0,0,0,0,0,0,0,0,0,0,0,0,0,0,0,0,0,0,0,0,0,0,0,0,0,0,0,0,0,0,0,0,0,0,0,0,0,0,0,0,0,0,0,0,0,0,0,0,0,0,0,0,0,0,0,0,0,0,0,0,0,0,0,0,0,0,0],"id":2,"left_children":[1,3,5,7,9,11,13,15,17,19,21,23,25,27,29,31,33,35,37,39,41,43,45,47,49,51,53,55,57,59,61,63,65,67,69,71,73,75,77,79,81,83,85,87,89,91,93,95,97,99,101,103,105,107,109,111,113,115,117,119,121,123,125,-1,-1,-1,-1,-1,-1,-1,-1,-1,-1,-1,-1,-1,-1,-1,-1,-1,-1,-1,-1,-1,-1,-1,-1,-1,-1,-1,-1,-1,-1,-1,-1,-1,-1,-1,-1,-1,-1,-1,-1,-1,-1,-1,-1,-1,-1,-1,-1,-1,-1,-1,-1,-1,-1,-1,-1,-1,-1,-1,-1,-1,-1,-1,-1],"loss_changes":[4.620635E4,3.676901E4,1.2351105E4,7.2354336E3,5.088442E3,8.785752E3,3.0540586E3,4.2908594E3,4.955039E3,2.0565674E3,2.7541985E3,1.3696182E3,1.9764744E4,9.683535E2,5.0412197E3,7.177549E2,4.681756E2,1.8006016E3,3.036079E3,2.5168467E3,2.9270889E3,3.630249E2,4.843715E3,6.9070953E2,4.6168848E2,6.8548027E3,1.1018496E3,4.0045898E2,1.1125237E3,4.893307E3,6.804375E2,2.3510986E2,3.8622705E2,4.113805E2,2.1711292E2,5.070625E2,1.0866086E3,5.9152637E2,1.7616984E3,1.4522949E2,3.1151544E2,1.3600265E3,4.156496E3,4.098828E2,3.4978723E2,4.312504E3,4.5859814E2,3.7092847E2,1.4596242E2,2.0019238E2,4.8483536E2,1.0291782E3,7.735742E2,1.599977E3,3.412002E2,1.3495068E2,2.2296289E2,1.0483203E3,3.062522E2,2.3548262E3,1.112689E3,4.7279395E2,1.0683523E3,0E0,0E0,0E0,0E0,0E0,0E0,0E0,0E0,0E0,0E0,0E0,0E0,0E0,0E0,0E0,0E0,0E0,0E0,0E0,0E0,0E0,0E0,0E0,0E0,0E0,0E0,0E0,0E0,0E0,0E0,0E0,0E0,0E0,0E0,0E0,0E0,0E0,0E0,0E0,0E0,0E0,0E0,0E0,0E0,0E0,0E0,0E0,0E0,0E0,0E0,0E0,0E0,0E0,0E0,0E0,0E0,0E0,0E0,0E0,0E0,0E0,0E0,0E0,0E0],"parents":[2147483647,0,0,1,1,2,2,3,3,4,4,5,5,6,6,7,7,8,8,9,9,10,10,11,11,12,12,13,13,14,14,15,15,16,16,17,17,18,18,19,19,20,20,21,21,22,22,23,23,24,24,25,25,26,26,27,27,28,28,29,29,30,30,31,31,32,32,33,33,34,34,35,35,36,36,37,37,38,38,39,39,40,40,41,41,42,42,43,43,44,44,45,45,46,46,47,47,48,48,49,49,50,50,51,51,52,52,53,53,54,54,55,55,56,56,57,57,58,58,59,59,60,60,61,61,62,62],"right_children":[2,4,6,8,10,12,14,16,18,20,22,24,26,28,30,32,34,36,38,40,42,44,46,48,50,52,54,56,58,60,62,64,66,68,70,72,74,76,78,80,82,84,86,88,90,92,94,96,98,100,102,104,106,108,110,112,114,116,118,120,122,124,126,-1,-1,-1,-1,-1,-1,-1,-1,-1,-1,-1,-1,-1,-1,-1,-1,-1,-1,-1,-1,-1,-1,-1,-1,-1,-1,-1,-1,-1,-1,-1,-1,-1,-1,-1,-1,-1,-1,-1,-1,-1,-1,-1,-1,-1,-1,-1,-1,-1,-1,-1,-1,-1,-1,-1,-1,-1,-1,-1,-1,-1,-1,-1,-1],"split_conditions":[1.8404726E0,-1.3754025E0,-1.6610683E0,-2.9413852E-1,-6.578296E-1,-2.686681E0,-2.3364272E0,-2.8028238E-1,-1.7848175E0,-1.7652676E0,-2.424576E0,-2.0769281E0,3.5691068E-1,1.3924592E0,7.06437E-1,-7.9305744E-1,-1.6424907E0,1.6087188E0,6.3494164E-1,5.276476E-1,1.1735754E0,1.5901717E0,5.0186867E-1,-1.0411298E0,1.9170331E0,-1.7487391E0,-1.3551137E0,-1.7939812E0,-1.4138217E0,-9.5564055E-1,7.3623955E-1,-7.605596E-1,-4.4333318E-1,-1.8378191E0,-2.3112204E0,-1.9852853E0,4.566762E-1,-8.293984E-2,7.16098E-1,2.7693576E-1,5.901564E-1,-2.3063905E0,-1.818622E-2,-2.0059063E0,-9.840579E-1,-1.4798231E0,1.6997526E0,-4.0661235E0,-3.334169E0,2.24727E0,-1.5469884E0,-1.4421165E0,-1.9747071E0,9.32503E-1,5.0186867E-1,-1.8157579E0,-2.234475E0,-1.3549314E0,2.555475E0,-8.781456E-1,-1.6609652E0,-2.253981E0,1.3246588E0,1.6355912E-1,7.590453E-2,-1.0523593E-2,1.2208631E-1,-7.362158E-2,5.0727136E-2,3.4201809E-3,-9.0219356E-2,1.9121145E-1,1.5549068E-1,2.5447393E-2,1.6584414E-1,8.659901E-2,1.6390024E-1,1.0885145E-2,1.1221019E-1,1.6862808E-1,1.08058624E-1,3.321315E-2,-4.7467396E-2,-6.037111E-2,5.8276556E-3,-6.080341E-2,1.0506576E-1,-4.5629725E-2,-1.13550805E-1,-9.795866E-3,-1.0280881E-1,1.11386195E-1,-2.5863335E-2,-9.527224E-2,-2.8863547E-2,-1.5399188E-2,1.3568288E-1,-1.0563828E-1,8.258334E-3,-1.11851685E-1,-5.6414116E-2,3.7646245E-2,-8.928936E-2,9.1901414E-2,-2.4158513E-2,1.832696E-1,1.2497618E-1,-8.0945335E-2,4.9427405E-2,-1.11177E-2,-1.12739615E-1,-5.1595755E-2,-9.7197495E-2,-7.995461E-2,-1.2839806E-1,5.3893488E-2,-7.660835E-2,-5.2462112E-2,-1.23223186E-1,-2.8716052E-2,6.0184825E-2,-1.4803231E-2,-8.1237085E-2,-4.259893E-2,-1.2219866E-1,-1.42810745E-2,-1.0303538E-1],"split_indices":[7,8,1,7,8,0,0,9,8,9,0,2,0,9,0,10,1,7,7,7,9,9,0,3,9,0,3,3,8,1,2,9,7,0,8,8,9,7,9,7,0,0,7,9,10,1,9,0,0,2,8,2,1,2,0,2,8,10,7,0,2,8,0,0,0,0,0,0,0,0,0,0,0,0,0,0,0,0,0,0,0,0,0,0,0,0,0,0,0,0,0,0,0,0,0,0,0,0,0,0,0,0,0,0,0,0,0,0,0,0,0,0,0,0,0,0,0,0,0,0,0,0,0,0,0,0,0],"split_type":[0,0,0,0,0,0,0,0,0,0,0,0,0,0,0,0,0,0,0,0,0,0,0,0,0,0,0,0,0,0,0,0,0,0,0,0,0,0,0,0,0,0,0,0,0,0,0,0,0,0,0,0,0,0,0,0,0,0,0,0,0,0,0,0,0,0,0,0,0,0,0,0,0,0,0,0,0,0,0,0,0,0,0,0,0,0,0,0,0,0,0,0,0,0,0,0,0,0,0,0,0,0,0,0,0,0,0,0,0,0,0,0,0,0,0,0,0,0,0,0,0,0,0,0,0,0,0],"sum_hessian":[1.8908727E5,9.0574734E4,9.851252E4,4.043869E4,5.0136047E4,3.2114418E4,6.639811E4,6.297624E3,3.4141066E4,2.6470412E4,2.3665633E4,9.11176E3,2.3002658E4,2.2291521E4,4.4106586E4,2.9111956E3,3.3864285E3,2.1142982E4,1.2998083E4,4.88825E3,2.1582162E4,7.570838E3,1.6094796E4,1.2276393E3,7.88412E3,1.3578923E4,9.423735E3,1.656255E4,5.7289707E3,2.7475322E4,1.6631266E4,1.9823595E3,9.2883606E2,1.1042711E3,2.2821575E3,1.8892604E4,2.2503796E3,5.6953057E3,7.302778E3,2.4000664E3,2.4881836E3,1.3899501E4,7.682662E3,5.9024487E3,1.6683893E3,9.51687E3,6.577926E3,7.1024164E2,5.1739764E2,6.622338E3,1.2617823E3,4.0732239E3,9.505699E3,4.212412E3,5.211323E3,4.493976E3,1.2068574E4,2.4753281E3,3.2536426E3,1.1933704E4,1.5541617E4,1.0454296E4,6.176969E3,1.6008109E3,3.8154852E2,5.7437036E2,3.544657E2,4.4426096E2,6.6001013E2,2.8250143E2,1.999656E3,1.3145682E4,5.7469204E3,1.2858474E3,9.6453204E2,1.2809825E3,4.414323E3,4.5479316E3,2.754846E3,1.8897441E3,5.103222E2,1.8428225E3,6.453611E2,4.676168E3,9.223333E3,2.0657207E3,5.6169414E3,1.0920421E3,4.8104062E3,9.8165344E2,6.867359E2,3.8310828E3,5.685787E3,5.2818135E3,1.2961124E3,2.5086899E2,4.5937265E2,3.5255896E2,1.6483868E2,5.8863164E3,7.360216E2,4.934629E2,7.683194E2,1.01771545E3,3.0555083E3,5.6928247E3,3.8128745E3,2.7938403E3,1.418572E3,3.5475635E2,4.856567E3,7.914501E2,3.7025261E3,1.046564E3,1.102201E4,1.1410245E3,1.3343036E3,8.1977637E2,2.4338662E3,5.7386133E3,6.1950913E3,3.1667446E3,1.2374873E4,8.102532E2,9.644043E3,2.0112404E3,4.165729E3],"tree_param":{"num_deleted":"0","num_feature":"17","num_nodes":"127","size_leaf_vector":"1"}},{"base_weights":[-3.0634343E-3,4.5129213E-1,-4.5348808E-1,1.0393248E0,-1.0584372E-1,-4.371784E-2,-7.213518E-1,1.0322403E-1,1.174731E0,-4.700747E-1,1.3400218E-1,-7.1511114E-1,2.837772E-1,-9.868205E-1,-5.9598637E-1,9.700711E-1,-5.4344916E-1,1.4914004E0,7.469481E-1,-1.3919987E-1,-7.5284183E-1,6.8145406E-1,-4.5952615E-1,-2.3900595E-2,-8.798625E-1,1.046775E0,-7.215392E-1,-1.0671039E0,-5.2037984E-1,-4.0601E-1,-9.8710585E-1,1.2963196E0,3.9140873E-2,-8.418678E-3,-7.921873E-1,1.6017576E0,6.500706E-1,1.1897005E0,3.7510422E-1,5.355577E-1,-2.6421472E-1,-3.464582E-1,-8.780924E-1,1.2444607E0,-9.38466E-2,-6.121699E-1,5.2901424E-2,7.1736544E-1,-4.994661E-1,-5.150471E-1,-1.0314255E0,1.4021944E-1,1.3400192E0,-9.5789266E-1,-3.0992466E-1,-8.1308347E-1,-1.1627008E0,3.991716E-1,-8.937637E-1,-9.892174E-2,-7.6602703E-1,-2.8175688E-1,-1.043945E0,1.476154E-1,8.914623E-2,-1.6913332E-2,6.555638E-2,3.316116E-2,-9.7618334E-2,-1.0827199E-1,-5.516058E-2,1.7415111E-1,1.393263E-1,1.4075905E-2,1.5548554E-1,8.57453E-2,1.5315785E-1,4.327071E-3,9.980715E-2,1.36563E-1,-7.172979E-3,-4.59027E-2,3.5544995E-2,2.2110706E-2,-7.270204E-2,-9.9692784E-2,-4.6868894E-2,1.6705981E-1,8.597749E-2,3.1052876E-2,-3.4943707E-2,1.0217234E-3,-8.170451E-2,-1.01619065E-1,4.104421E-2,5.1721586E-3,1.2240541E-1,1.6399123E-2,-8.683101E-2,1.4570395E-2,-9.320534E-2,-1.09888315E-1,-4.9184486E-2,8.3578914E-2,-2.5524924E-2,1.578136E-1,7.936687E-2,-4.3298673E-2,-1.0615057E-1,8.112773E-2,-7.55335E-2,-5.937298E-2,-9.456511E-2,-6.510202E-2,-1.20520234E-1,1.20339684E-1,-5.8485348E-2,-3.3565808E-2,-1.1483776E-1,-5.0372954E-2,1.6102185E-2,-5.5549365E-2,-9.61676E-2,-6.1939962E-2,9.9998534E-2,-7.8236856E-2,-1.18040495E-1],"categories":[],"categories_nodes":[],"categories_segments":[],"categories_sizes":[],"default_left":[0,0,0,0,0,0,0,0,0,0,0,0,0,0,0,0,0,0,0,0,0,0,0,0,0,0,0,0,0,0,0,0,0,0,0,0,0,0,0,0,0,0,0,0,0,0,0,0,0,0,0,0,0,0,0,0,0,0,0,0,0,0,0,0,0,0,0,0,0,0,0,0,0,0,0,0,0,0,0,0,0,0,0,0,0,0,0,0,0,0,0,0,0,0,0,0,0,0,0,0,0,0,0,0,0,0,0,0,0,0,0,0,0,0,0,0,0,0,0,0,0,0,0,0,0,0,0],"id":3,"left_children":[1,3,5,7,9,11,13,15,17,19,21,23,25,27,29,31,33,35,37,39,41,43,45,47,49,51,53,55,57,59,61,63,65,67,69,71,73,75,77,79,81,83,85,87,89,91,93,95,97,99,101,103,105,107,109,111,113,115,117,119,121,123,125,-1,-1,-1,-1,-1,-1,-1,-1,-1,-1,-1,-1,-1,-1,-1,-1,-1,-1,-1,-1,-1,-1,-1,-1,-1,-1,-1,-1,-1,-1,-1,-1,-1,-1,-1,-1,-1,-1,-1,-1,-1,-1,-1,-1,-1,-1,-1,-1,-1,-1,-1,-1,-1,-1,-1,-1,-1,-1,-1,-1,-1,-1,-1,-1],"loss_changes":[3.816412E4,3.0414488E4,1.02788125E4,5.724801E3,4.1645913E3,8.139801E3,1.884041E3,3.2006252E3,5.3441055E3,1.7707969E3,9.340176E3,1.3821392E3,1.9086969E4,6.795996E2,2.8578037E3,7.408533E2,4.3520068E2,2.104043E3,2.7631719E3,7.359863E2,5.191616E2,6.5270894E3,1.0788586E3,8.242485E2,5.41395E2,3.7605547E3,1.0442651E3,3.7532227E2,9.167679E2,2.8625234E3,5.038584E2,1.302019E2,8.151923E1,3.421771E2,1.5543738E2,5.815781E2,1.2120985E3,8.690127E2,1.8863403E3,6.876214E2,8.8869025E2,5.198542E2,3.7904492E2,1.4186074E3,6.503569E2,1.355064E3,1.210785E3,3.08144E2,3.4869156E2,7.933323E2,2.5146094E2,9.5161395E2,1.3893125E3,3.7046387E2,1.9571943E3,1.2273706E2,2.4399414E2,6.1123895E2,2.6940515E2,1.4705867E3,4.9041504E2,4.0705222E2,4.1445508E2,0E0,0E0,0E0,0E0,0E0,0E0,0E0,0E0,0E0,0E0,0E0,0E0,0E0,0E0,0E0,0E0,0E0,0E0,0E0,0E0,0E0,0E0,0E0,0E0,0E0,0E0,0E0,0E0,0E0,0E0,0E0,0E0,0E0,0E0,0E0,0E0,0E0,0E0,0E0,0E0,0E0,0E0,0E0,0E0,0E0,0E0,0E0,0E0,0E0,0E0,0E0,0E0,0E0,0E0,0E0,0E0,0E0,0E0,0E0,0E0,0E0,0E0,0E0,0E0],"parents":[2147483647,0,0,1,1,2,2,3,3,4,4,5,5,6,6,7,7,8,8,9,9,10,10,11,11,12,12,13,13,14,14,15,15,16,16,17,17,18,18,19,19,20,20,21,21,22,22,23,23,24,24,25,25,26,26,27,27,28,28,29,29,30,30,31,31,32,32,33,33,34,34,35,35,36,36,37,37,38,38,39,39,40,40,41,41,42,42,43,43,44,44,45,45,46,46,47,47,48,48,49,49,50,50,51,51,52,52,53,53,54,54,55,55,56,56,57,57,58,58,59,59,60,60,61,61,62,62],"right_children":[2,4,6,8,10,12,14,16,18,20,22,24,26,28,30,32,34,36,38,40,42,44,46,48,50,52,54,56,58,60,62,64,66,68,70,72,74,76,78,80,82,84,86,88,90,92,94,96,98,100,102,104,106,108,110,112,114,116,118,120,122,124,126,-1,-1,-1,-1,-1,-1,-1,-1,-1,-1,-1,-1,-1,-1,-1,-1,-1,-1,-1,-1,-1,-1,-1,-1,-1,-1,-1,-1,-1,-1,-1,-1,-1,-1,-1,-1,-1,-1,-1,-1,-1,-1,-1,-1,-1,-1,-1,-1,-1,-1,-1,-1,-1,-1,-1,-1,-1,-1,-1,-1,-1,-1,-1,-1],"split_conditions":[1.9226252E0,-1.2799475E0,-1.4990927E0,-3.5794216E-1,-1.8378191E0,-2.3364272E0,-2.424576E0,-4.9984565E-1,-1.7752583E0,-7.057003E-1,4.1439193E-1,-1.7713263E0,3.5691068E-1,2.004592E0,9.119432E-1,-6.5011144E-1,-1.6803493E0,1.6508547E0,6.7808557E-1,-1.962119E0,-1.4856163E0,-1.051577E0,1.5240989E0,-1.5173863E0,-1.7465186E0,-1.6617217E0,8.0191284E-1,-1.7939812E0,-1.7656951E0,-7.074947E-1,-2.2637393E0,-1.2213262E0,-4.4333318E-1,6.7771286E-1,-1.4263574E0,-2.0423713E0,8.4614E-1,-1.1925899E0,8.909728E-1,3.6076868E-1,1.6778384E0,-1.4695646E0,1.5901717E0,-1.7847346E0,-6.4024615E-1,-1.7216654E0,-3.982453E-2,-3.742888E0,-2.1185496E0,2.9803514E0,2.2910652E0,-8.520203E-1,-1.7847346E0,-2.0423713E0,9.7166115E-1,2.9589553E0,-2.2637393E0,-1.164956E0,-1.6997437E0,-1.1097363E0,-1.2694637E0,1.785969E0,-1.6131091E0,1.476154E-1,8.914623E-2,-1.6913332E-2,6.555638E-2,3.316116E-2,-9.7618334E-2,-1.0827199E-1,-5.516058E-2,1.7415111E-1,1.393263E-1,1.4075905E-2,1.5548554E-1,8.57453E-2,1.5315785E-1,4.327071E-3,9.980715E-2,1.36563E-1,-7.172979E-3,-4.59027E-2,3.5544995E-2,2.2110706E-2,-7.270204E-2,-9.9692784E-2,-4.6868894E-2,1.6705981E-1,8.597749E-2,3.1052876E-2,-3.4943707E-2,1.0217234E-3,-8.170451E-2,-1.01619065E-1,4.104421E-2,5.1721586E-3,1.2240541E-1,1.6399123E-2,-8.683101E-2,1.4570395E-2,-9.320534E-2,-1.09888315E-1,-4.9184486E-2,8.3578914E-2,-2.5524924E-2,1.578136E-1,7.936687E-2,-4.3298673E-2,-1.0615057E-1,8.112773E-2,-7.55335E-2,-5.937298E-2,-9.456511E-2,-6.510202E-2,-1.20520234E-1,1.20339684E-1,-5.8485348E-2,-3.3565808E-2,-1.1483776E-1,-5.0372954E-2,1.6102185E-2,-5.5549365E-2,-9.61676E-2,-6.1939962E-2,9.9998534E-2,-7.8236856E-2,-1.18040495E-1],"split_indices":[7,8,1,7,0,0,0,9,8,8,0,2,0,9,0,10,1,7,7,9,2,1,9,3,8,0,2,3,8,1,8,10,7,0,0,8,9,10,9,7,9,3,9,1,1,9,7,0,1,7,2,2,1,8,0,7,8,10,10,0,3,9,3,0,0,0,0,0,0,0,0,0,0,0,0,0,0,0,0,0,0,0,0,0,0,0,0,0,0,0,0,0,0,0,0,0,0,0,0,0,0,0,0,0,0,0,0,0,0,0,0,0,0,0,0,0,0,0,0,0,0,0,0,0,0,0,0],"split_type":[0,0,0,0,0,0,0,0,0,0,0,0,0,0,0,0,0,0,0,0,0,0,0,0,0,0,0,0,0,0,0,0,0,0,0,0,0,0,0,0,0,0,0,0,0,0,0,0,0,0,0,0,0,0,0,0,0,0,0,0,0,0,0,0,0,0,0,0,0,0,0,0,0,0,0,0,0,0,0,0,0,0,0,0,0,0,0,0,0,0,0,0,0,0,0,0,0,0,0,0,0,0,0,0,0,0,0,0,0,0,0,0,0,0,0,0,0,0,0,0,0,0,0,0,0,0,0],"sum_hessian":[1.8648016E5,9.2834984E4,9.364517E4,4.516472E4,4.767026E4,3.7017703E4,5.6627465E4,5.707683E3,3.945704E4,1.8926875E4,2.8743389E4,1.2136219E4,2.4881484E4,1.8161834E4,3.8465633E4,2.4384756E3,3.2692073E3,2.2671678E4,1.678536E4,8.72222E3,1.0204654E4,1.4951992E4,1.3791396E4,2.3361409E3,9.800078E3,1.41455205E4,1.0735965E4,1.54937705E4,2.6680627E3,2.589152E4,1.2574111E4,1.80538E3,6.330957E2,1.0378492E3,2.2313582E3,2.0041879E4,2.6297986E3,7.6611147E3,9.124244E3,1.3628834E3,7.3593364E3,2.4050564E3,7.799598E3,8.661554E3,6.2904385E3,1.0625915E4,3.1654807E3,9.1281836E2,1.4233224E3,2.8777256E3,6.922352E3,3.4576826E3,1.0687838E4,6.8190605E3,3.916904E3,4.239105E3,1.1254665E4,7.704838E2,1.8975789E3,1.3973577E4,1.1917943E4,9.3814075E2,1.1635971E4,1.2482646E3,5.5711523E2,4.7375208E2,1.593436E2,7.6849194E2,2.693572E2,1.0091642E3,1.222194E3,1.1994585E4,8.047294E3,1.6833699E3,9.464288E2,3.8870583E3,3.7740566E3,5.953883E3,3.1703618E3,5.7529346E2,7.875899E2,5.5992764E3,1.7600599E3,9.655168E2,1.4395396E3,6.043846E3,1.7557515E3,4.1077896E3,4.5537646E3,2.4360674E3,3.854371E3,2.63179E3,7.9941255E3,7.9286664E2,2.3726143E3,3.950015E2,5.1781683E2,5.087553E2,9.1456714E2,1.1137025E3,1.7640232E3,6.1521777E3,7.701745E2,1.2529026E3,2.20478E3,7.442344E3,3.245494E3,1.1249938E3,5.694067E3,1.1133986E3,2.8035056E3,1.5989209E3,2.6401843E3,8.644002E2,1.0390266E4,4.2385342E2,3.466304E2,5.9521173E2,1.3023672E3,5.463844E3,8.509732E3,5.742457E3,6.175486E3,7.4294684E2,1.9519388E2,3.9915015E3,7.644469E3],"tree_param":{"num_deleted":"0","num_feature":"17","num_nodes":"127","size_leaf_vector":"1"}},{"base_weights":[-3.3279725E-3,3.9851758E-1,-4.324427E-1,1.0647892E0,-5.505676E-3,2.6096929E-2,-6.414055E-1,2.1971694E-1,1.219483E0,3.4609935E-1,-2.556585E-1,-7.441162E-1,2.9578036E-1,-9.104391E-1,-4.9298367E-1,9.2279583E-1,-4.567442E-1,1.3793676E0,5.3472966E-1,7.107708E-1,1.5552491E-1,-6.726782E-1,-5.7208993E-2,1.4477298E-1,-8.900128E-1,8.8089293E-1,-7.073074E-1,-1.0036874E0,-5.219157E-1,-2.3745E-1,-9.05714E-1,1.2555647E0,4.058017E-1,8.038305E-2,-6.6097826E-1,1.6006742E0,1.0690048E0,1.437086E-1,1.3274958E0,9.887605E-1,2.6272067E-1,7.2323716E-1,3.371703E-2,-8.058932E-1,-2.8795108E-1,3.1983596E-1,-6.465678E-1,6.847029E-1,-7.1140414E-1,-9.8389095E-1,-3.2633686E-1,8.125875E-2,1.3178666E0,-3.1937036E-1,-1.0293071E0,-7.2911096E-1,-1.0999469E0,4.4658124E-1,-7.6013225E-1,1.3803692E-1,-6.336604E-1,-1.0633463E0,-6.4348745E-1,1.463138E-1,6.7499034E-2,-1.2568573E-2,1.00966156E-1,-6.1915595E-2,5.511853E-2,1.5681995E-2,-8.0410324E-2,1.6490458E-1,1.4568551E-1,1.4594257E-1,6.464171E-2,3.8602393E-2,-4.9304318E-2,1.6689353E-1,6.321694E-2,2.9435689E-2,1.2555262E-1,-1.2188664E-2,9.510941E-2,1.4026092E-1,1.9143075E-2,-1.5597329E-2,5.126174E-2,-3.5353325E-2,-1.0047644E-1,-1.0228344E-1,1.8811146E-3,7.4571386E-2,-3.551731E-2,-7.7592306E-2,-1.38027E-2,-1.1529089E-2,1.1623716E-1,-1.0570277E-1,2.4477541E-3,-6.857898E-2,-1.0925841E-1,3.3469524E-2,-8.547991E-2,7.6844886E-2,-2.3746662E-2,1.4574723E-1,3.4184832E-2,-6.556886E-2,5.501011E-2,-1.1225309E-1,-4.4946484E-2,-3.1972658E-2,-8.3505906E-2,-8.9131005E-2,-1.20452836E-1,1.02023326E-1,-4.7400557E-2,-2.102871E-2,-1.0513182E-1,-2.837278E-2,4.6668496E-2,-1.2591231E-2,-7.667362E-2,-1.15912735E-1,-6.174764E-2,-9.901715E-3,-9.428077E-2],"categories":[],"categories_nodes":[],"categories_segments":[],"categories_sizes":[],"default_left":[0,0,0,0,0,0,0,0,0,0,0,0,0,0,0,0,0,0,0,0,0,0,0,0,0,0,0,0,0,0,0,0,0,0,0,0,0,0,0,0,0,0,0,0,0,0,0,0,0,0,0,0,0,0,0,0,0,0,0,0,0,0,0,0,0,0,0,0,0,0,0,0,0,0,0,0,0,0,0,0,0,0,0,0,0,0,0,0,0,0,0,0,0,0,0,0,0,0,0,0,0,0,0,0,0,0,0,0,0,0,0,0,0,0,0,0,0,0,0,0,0,0,0,0,0,0,0],"id":4,"left_children":[1,3,5,7,9,11,13,15,17,19,21,23,25,27,29,31,33,35,37,39,41,43,45,47,49,51,53,55,57,59,61,63,65,67,69,71,73,75,77,79,81,83,85,87,89,91,93,95,97,99,101,103,105,107,109,111,113,115,117,119,121,123,125,-1,-1,-1,-1,-1,-1,-1,-1,-1,-1,-1,-1,-1,-1,-1,-1,-1,-1,-1,-1,-1,-1,-1,-1,-1,-1,-1,-1,-1,-1,-1,-1,-1,-1,-1,-1,-1,-1,-1,-1,-1,-1,-1,-1,-1,-1,-1,-1,-1,-1,-1,-1,-1,-1,-1,-1,-1,-1,-1,-1,-1,-1,-1,-1],"loss_changes":[3.1607537E4,2.5480555E4,8.493441E3,4.6708555E3,5.182918E3,5.764344E3,2.431002E3,2.6305168E3,3.3059062E3,1.7022991E3,2.8493625E3,9.334739E2,1.2064375E4,7.837793E2,4.138791E3,4.660581E2,3.0929816E2,1.680043E3,1.7725771E3,1.0469111E3,1.1126091E3,5.687427E2,5.1845107E3,4.699629E2,3.2683154E2,4.536166E3,9.456614E2,4.6060156E2,9.675276E2,3.606247E3,6.196035E2,1.9779443E2,3.4144864E2,2.5640283E2,2.3919849E2,9.7015625E1,1.6810703E3,5.9128394E2,4.4738818E2,9.6066797E2,8.527368E2,1.0266377E3,1.2036036E3,7.414419E2,6.4406384E2,4.0905522E3,5.9868726E2,2.3832526E2,1.0004526E2,1.7095508E2,3.0914597E2,1.00519226E3,1.1433535E3,1.0051956E3,2.2316211E2,1.9640625E2,2.80917E2,4.3785684E2,5.385366E2,1.7253073E3,7.9684424E2,3.994707E2,9.1849023E2,0E0,0E0,0E0,0E0,0E0,0E0,0E0,0E0,0E0,0E0,0E0,0E0,0E0,0E0,0E0,0E0,0E0,0E0,0E0,0E0,0E0,0E0,0E0,0E0,0E0,0E0,0E0,0E0,0E0,0E0,0E0,0E0,0E0,0E0,0E0,0E0,0E0,0E0,0E0,0E0,0E0,0E0,0E0,0E0,0E0,0E0,0E0,0E0,0E0,0E0,0E0,0E0,0E0,0E0,0E0,0E0,0E0,0E0,0E0,0E0,0E0,0E0,0E0,0E0],"parents":[2147483647,0,0,1,1,2,2,3,3,4,4,5,5,6,6,7,7,8,8,9,9,10,10,11,11,12,12,13,13,14,14,15,15,16,16,17,17,18,18,19,19,20,20,21,21,22,22,23,23,24,24,25,25,26,26,27,27,28,28,29,29,30,30,31,31,32,32,33,33,34,34,35,35,36,36,37,37,38,38,39,39,40,40,41,41,42,42,43,43,44,44,45,45,46,46,47,47,48,48,49,49,50,50,51,51,52,52,53,53,54,54,55,55,56,56,57,57,58,58,59,59,60,60,61,61,62,62],"right_children":[2,4,6,8,10,12,14,16,18,20,22,24,26,28,30,32,34,36,38,40,42,44,46,48,50,52,54,56,58,60,62,64,66,68,70,72,74,76,78,80,82,84,86,88,90,92,94,96,98,100,102,104,106,108,110,112,114,116,118,120,122,124,126,-1,-1,-1,-1,-1,-1,-1,-1,-1,-1,-1,-1,-1,-1,-1,-1,-1,-1,-1,-1,-1,-1,-1,-1,-1,-1,-1,-1,-1,-1,-1,-1,-1,-1,-1,-1,-1,-1,-1,-1,-1,-1,-1,-1,-1,-1,-1,-1,-1,-1,-1,-1,-1,-1,-1,-1,-1,-1,-1,-1,-1,-1,-1,-1],"split_conditions":[2.0060873E0,-1.5376263E0,-1.6996233E0,-2.7303803E-1,-9.170908E-1,-2.8342962E0,-2.1306534E0,-1.2975144E-1,1.5666432E0,1.2033325E-1,-2.366197E0,-2.0769281E0,4.723843E-1,1.7639675E0,7.06437E-1,-9.650677E-1,-1.7847346E0,-1.9094441E0,9.7801024E-1,9.518221E-1,-1.8084533E0,1.3924592E0,5.901564E-1,-9.745613E-1,2.0268538E0,-1.6321741E0,-1.3551137E0,-1.8319436E0,-1.994793E0,-8.600855E-1,7.3623955E-1,-8.247261E-1,-4.6343118E-1,-1.8378191E0,-2.3112204E0,-2.0423713E0,6.7808557E-1,5.307942E-1,-8.218466E-1,-2.3011605E-1,8.247173E-1,4.446091E-1,1.5019537E0,-1.568701E0,1.3014838E-1,-9.748642E-1,1.6997526E0,-4.0661235E0,-3.4214275E0,-1.7939812E0,-1.4710298E0,-1.1135046E0,2.0849104E-1,1.3261706E0,2.0268538E0,-1.6609652E0,2.896126E0,-9.934238E-1,-1.6415946E0,-8.781456E-1,-1.6609652E0,1.8293473E0,-1.5936258E0,1.463138E-1,6.7499034E-2,-1.2568573E-2,1.00966156E-1,-6.1915595E-2,5.511853E-2,1.5681995E-2,-8.0410324E-2,1.6490458E-1,1.4568551E-1,1.4594257E-1,6.464171E-2,3.8602393E-2,-4.9304318E-2,1.6689353E-1,6.321694E-2,2.9435689E-2,1.2555262E-1,-1.2188664E-2,9.510941E-2,1.4026092E-1,1.9143075E-2,-1.5597329E-2,5.126174E-2,-3.5353325E-2,-1.0047644E-1,-1.0228344E-1,1.8811146E-3,7.4571386E-2,-3.551731E-2,-7.7592306E-2,-1.38027E-2,-1.1529089E-2,1.1623716E-1,-1.0570277E-1,2.4477541E-3,-6.857898E-2,-1.0925841E-1,3.3469524E-2,-8.547991E-2,7.6844886E-2,-2.3746662E-2,1.4574723E-1,3.4184832E-2,-6.556886E-2,5.501011E-2,-1.1225309E-1,-4.4946484E-2,-3.1972658E-2,-8.3505906E-2,-8.9131005E-2,-1.20452836E-1,1.02023326E-1,-4.7400557E-2,-2.102871E-2,-1.0513182E-1,-2.837278E-2,4.6668496E-2,-1.2591231E-2,-7.667362E-2,-1.15912735E-1,-6.174764E-2,-9.901715E-3,-9.428077E-2],"split_indices":[7,8,1,7,8,0,0,9,7,14,0,2,0,9,0,10,1,8,9,7,9,9,0,3,9,0,3,3,8,1,2,9,7,0,8,8,7,0,10,7,9,7,9,9,7,1,9,0,0,3,8,2,0,2,9,2,7,10,10,0,2,9,3,0,0,0,0,0,0,0,0,0,0,0,0,0,0,0,0,0,0,0,0,0,0,0,0,0,0,0,0,0,0,0,0,0,0,0,0,0,0,0,0,0,0,0,0,0,0,0,0,0,0,0,0,0,0,0,0,0,0,0,0,0,0,0,0],"split_type":[0,0,0,0,0,0,0,0,0,0,0,0,0,0,0,0,0,0,0,0,0,0,0,0,0,0,0,0,0,0,0,0,0,0,0,0,0,0,0,0,0,0,0,0,0,0,0,0,0,0,0,0,0,0,0,0,0,0,0,0,0,0,0,0,0,0,0,0,0,0,0,0,0,0,0,0,0,0,0,0,0,0,0,0,0,0,0,0,0,0,0,0,0,0,0,0,0,0,0,0,0,0,0,0,0,0,0,0,0,0,0,0,0,0,0,0,0,0,0,0,0,0,0,0,0,0,0],"sum_hessian":[1.8329612E5,9.4655664E4,8.864046E4,3.5730742E4,5.8924926E4,2.774933E4,6.0891133E4,5.528993E3,3.020175E4,2.4495137E4,3.442979E4,7.1959663E3,2.0553363E4,2.1647375E4,3.9243758E4,2.7109778E3,2.8180151E3,2.4483928E4,5.717822E3,8.406414E3,1.6088723E4,1.1100639E4,2.3329148E4,1.0145755E3,6.1813906E3,1.2981328E4,7.5720347E3,1.7456188E4,4.191188E3,2.4238535E4,1.5005225E4,1.6484844E3,1.0624934E3,7.7648846E2,2.0415266E3,1.4290106E4,1.0193821E4,3.8299385E3,1.8878833E3,5.1869805E3,3.2194338E3,2.8412974E3,1.3247426E4,8.244734E3,2.8559038E3,1.42275E4,9.101649E3,6.223218E2,3.9225372E2,5.2982427E3,8.8314813E2,4.5875635E3,8.393765E3,3.4352837E3,4.136751E3,4.533405E3,1.2922782E4,8.272071E2,3.3639807E3,1.2445058E4,1.1793478E4,9.369738E3,5.6354863E3,1.2132058E3,4.352786E2,5.6553204E2,4.969614E2,3.1223727E2,4.642512E2,3.040616E2,1.737465E3,1.0685668E4,3.6044382E3,5.297295E3,4.8965264E3,2.774499E3,1.0554395E3,1.2652053E3,6.22678E2,1.4401931E3,3.7467874E3,2.0659636E3,1.1534702E3,1.246843E3,1.5944543E3,9.489394E3,3.758032E3,2.518603E3,5.726132E3,8.403696E2,2.015534E3,8.72353E3,5.5039697E3,7.25556E3,1.8460891E3,2.3294576E2,3.8937604E2,2.6660175E2,1.2565198E2,1.4176147E3,3.8806277E3,3.925233E2,4.9062488E2,1.4531272E3,3.1344363E3,7.3429634E3,1.0508015E3,2.4772937E3,9.579902E2,3.562979E3,5.7377216E2,9.328567E2,3.600548E3,4.3180083E3,8.604774E3,5.09568E2,3.176391E2,1.1652903E3,2.1986904E3,5.4504517E3,6.9946055E3,2.44948E3,9.343997E3,7.7115522E3,1.6581854E3,1.9995643E3,3.635922E3],"tree_param":{"num_deleted":"0","num_feature":"17","num_nodes":"127","size_leaf_vector":"1"}},{"base_weights":[-3.4561807E-3,4.1484973E-1,-3.5450333E-1,1.0750365E0,3.372269E-2,-4.3177906E-2,-6.16317E-1,2.2208771E-1,1.2706026E0,2.992815E-1,-3.0203575E-1,-6.8337446E-1,2.017606E-1,-7.4894714E-1,-3.0333954E-1,8.714397E-1,-4.003868E-1,1.4813797E0,9.657766E-1,6.765823E-1,1.274153E-1,-6.381751E-1,-6.75681E-2,1.09457545E-1,-7.822109E-1,7.163218E-1,-6.556059E-1,-9.799819E-1,-6.4646196E-1,1.5113199E-1,-6.601824E-1,1.1814673E0,4.0269378E-1,2.1429256E-1,-5.8057547E-1,1.503905E0,1.1056159E0,1.3571278E0,5.297048E-1,8.6024487E-1,3.3121842E-1,6.8711156E-1,-1.077539E-2,-2.4527992E-1,-7.842741E-1,4.711079E-1,-6.059652E-1,8.8402843E-1,-4.2176658E-1,-2.5107276E-1,-8.965389E-1,-1.3213413E-2,1.0145847E0,-2.512438E-1,-8.766567E-1,-6.920875E-1,-1.0563849E0,-5.0396025E-1,-1.0046391E0,8.6399007E-1,-3.423621E-1,-3.3344876E-2,-7.8883386E-1,1.3764034E-1,6.504088E-2,-3.926544E-3,1.0858909E-1,-5.6039035E-2,1.6083913E-1,-1.0154591E-1,-3.0685017E-2,1.5443741E-1,1.3419662E-1,5.9457876E-2,1.5372336E-1,6.1827224E-2,1.4655407E-1,3.2146286E-2,1.1058636E-1,2.428304E-2,1.1189919E-1,-8.591181E-3,1.0195376E-1,1.2532698E-1,1.9250313E-2,-1.9064525E-2,4.3703537E-2,2.0547979E-2,-6.414215E-2,-2.3540324E-2,-8.6710505E-2,1.3932061E-1,-5.404942E-3,-8.487208E-2,-2.4500174E-2,1.4203937E-1,3.603626E-2,-7.797304E-2,1.7923307E-2,3.4607444E-2,-7.372047E-2,-5.8458753E-2,-1.0192215E-1,5.2482497E-2,-3.508825E-2,1.3910349E-1,7.0810966E-2,-6.040969E-2,6.072703E-2,-3.328869E-2,-9.9142924E-2,-5.706985E-2,-8.970991E-2,-5.25344E-2,-1.1015327E-1,-2.5236068E-2,-7.8261025E-2,-7.468167E-2,-1.13463536E-1,1.43806E-1,3.8147E-2,9.9912666E-2,-4.669341E-2,-6.285135E-2,5.792449E-2,-1.02387786E-1,-6.410605E-2],"categories":[],"categories_nodes":[],"categories_segments":[],"categories_sizes":[],"default_left":[0,0,0,0,0,0,0,0,0,0,0,0,0,0,0,0,0,0,0,0,0,0,0,0,0,0,0,0,0,0,0,0,0,0,0,0,0,0,0,0,0,0,0,0,0,0,0,0,0,0,0,0,0,0,0,0,0,0,0,0,0,0,0,0,0,0,0,0,0,0,0,0,0,0,0,0,0,0,0,0,0,0,0,0,0,0,0,0,0,0,0,0,0,0,0,0,0,0,0,0,0,0,0,0,0,0,0,0,0,0,0,0,0,0,0,0,0,0,0,0,0,0,0,0,0,0,0],"id":5,"left_children":[1,3,5,7,9,11,13,15,17,19,21,23,25,27,29,31,33,35,37,39,41,43,45,47,49,51,53,55,57,59,61,63,65,67,69,71,73,75,77,79,81,83,85,87,89,91,93,95,97,99,101,103,105,107,109,111,113,115,117,119,121,123,125,-1,-1,-1,-1,-1,-1,-1,-1,-1,-1,-1,-1,-1,-1,-1,-1,-1,-1,-1,-1,-1,-1,-1,-1,-1,-1,-1,-1,-1,-1,-1,-1,-1,-1,-1,-1,-1,-1,-1,-1,-1,-1,-1,-1,-1,-1,-1,-1,-1,-1,-1,-1,-1,-1,-1,-1,-1,-1,-1,-1,-1,-1,-1,-1],"loss_changes":[2.6411295E4,2.0649326E4,7.970838E3,5.0101367E3,4.63938E3,7.0051943E3,2.2047695E3,2.26537E3,1.5684883E3,1.8838787E3,1.8110156E3,9.6879834E2,1.4255197E4,8.827383E2,2.564419E3,3.9813745E2,3.1708322E2,1.2058984E2,1.7044209E3,5.764375E2,1.5439667E3,5.41802E2,3.9265422E3,5.6456537E2,6.6725684E2,4.393874E3,1.083064E3,2.513916E2,1.3187451E3,2.4471724E3,7.142803E2,1.6996436E2,3.3021027E2,7.023008E2,2.631524E2,8.721289E1,1.8009802E2,4.2084082E2,5.668439E2,9.47875E2,9.0685974E2,1.1066359E3,1.2896732E3,4.5740558E2,3.1268994E2,3.2773179E3,5.931155E2,1.5625616E2,1.7526514E2,5.658479E2,3.455537E2,1.0649886E3,1.6526611E3,1.2984087E3,4.8867578E2,5.9385376E1,2.1655176E2,1.2962783E3,2.4567871E2,7.8769165E2,6.874386E2,5.506796E2,2.5460449E2,0E0,0E0,0E0,0E0,0E0,0E0,0E0,0E0,0E0,0E0,0E0,0E0,0E0,0E0,0E0,0E0,0E0,0E0,0E0,0E0,0E0,0E0,0E0,0E0,0E0,0E0,0E0,0E0,0E0,0E0,0E0,0E0,0E0,0E0,0E0,0E0,0E0,0E0,0E0,0E0,0E0,0E0,0E0,0E0,0E0,0E0,0E0,0E0,0E0,0E0,0E0,0E0,0E0,0E0,0E0,0E0,0E0,0E0,0E0,0E0,0E0,0E0,0E0,0E0],"parents":[2147483647,0,0,1,1,2,2,3,3,4,4,5,5,6,6,7,7,8,8,9,9,10,10,11,11,12,12,13,13,14,14,15,15,16,16,17,17,18,18,19,19,20,20,21,21,22,22,23,23,24,24,25,25,26,26,27,27,28,28,29,29,30,30,31,31,32,32,33,33,34,34,35,35,36,36,37,37,38,38,39,39,40,40,41,41,42,42,43,43,44,44,45,45,46,46,47,47,48,48,49,49,50,50,51,51,52,52,53,53,54,54,55,55,56,56,57,57,58,58,59,59,60,60,61,61,62,62],"right_children":[2,4,6,8,10,12,14,16,18,20,22,24,26,28,30,32,34,36,38,40,42,44,46,48,50,52,54,56,58,60,62,64,66,68,70,72,74,76,78,80,82,84,86,88,90,92,94,96,98,100,102,104,106,108,110,112,114,116,118,120,122,124,126,-1,-1,-1,-1,-1,-1,-1,-1,-1,-1,-1,-1,-1,-1,-1,-1,-1,-1,-1,-1,-1,-1,-1,-1,-1,-1,-1,-1,-1,-1,-1,-1,-1,-1,-1,-1,-1,-1,-1,-1,-1,-1,-1,-1,-1,-1,-1,-1,-1,-1,-1,-1,-1,-1,-1,-1,-1,-1,-1,-1,-1,-1,-1,-1],"split_conditions":[1.6722455E0,-1.5565205E0,-1.3557975E0,-2.5167498E-1,-7.1549666E-1,-2.686681E0,1.1735754E0,-1.2975144E-1,-1.9094441E0,1.093818E-1,-1.6905032E0,-2.2297008E0,4.723843E-1,-2.4540763E0,2.9803514E0,-9.744965E-1,-2.2445164E0,1.5666432E0,7.635684E-1,8.473844E-1,-1.6989794E0,-1.310697E0,3.5691068E-1,-1.5267724E0,-2.0328326E0,-1.7487391E0,-1.6033438E0,-1.957067E0,1.0603185E0,-1.4695976E0,-2.051659E0,-8.247261E-1,-4.2174911E-1,-4.003866E-1,-1.8975526E0,-2.013468E0,-2.8028238E-1,-1.2544256E-1,1.3265731E0,-2.3011605E-1,7.16098E-1,3.8181335E-1,1.5240989E0,-1.3173391E0,-2.093378E0,-1.5760956E0,5.637517E-1,-1.9078933E0,-3.4509358E0,2.9803514E0,-1.7660311E0,2.8331976E0,-1.9460956E0,1.259609E0,-2.0328326E0,4.8648474E-1,-2.2637393E0,-6.691743E-1,-1.641746E0,-1.3469827E0,-2.253981E0,2.0268538E0,-1.926653E0,1.3764034E-1,6.504088E-2,-3.926544E-3,1.0858909E-1,-5.6039035E-2,1.6083913E-1,-1.0154591E-1,-3.0685017E-2,1.5443741E-1,1.3419662E-1,5.9457876E-2,1.5372336E-1,6.1827224E-2,1.4655407E-1,3.2146286E-2,1.1058636E-1,2.428304E-2,1.1189919E-1,-8.591181E-3,1.0195376E-1,1.2532698E-1,1.9250313E-2,-1.9064525E-2,4.3703537E-2,2.0547979E-2,-6.414215E-2,-2.3540324E-2,-8.6710505E-2,1.3932061E-1,-5.404942E-3,-8.487208E-2,-2.4500174E-2,1.4203937E-1,3.603626E-2,-7.797304E-2,1.7923307E-2,3.4607444E-2,-7.372047E-2,-5.8458753E-2,-1.0192215E-1,5.2482497E-2,-3.508825E-2,1.3910349E-1,7.0810966E-2,-6.040969E-2,6.072703E-2,-3.328869E-2,-9.9142924E-2,-5.706985E-2,-8.970991E-2,-5.25344E-2,-1.1015327E-1,-2.5236068E-2,-7.8261025E-2,-7.468167E-2,-1.13463536E-1,1.43806E-1,3.8147E-2,9.9912666E-2,-4.669341E-2,-6.285135E-2,5.792449E-2,-1.02387786E-1,-6.410605E-2],"split_indices":[7,8,1,7,8,0,9,9,8,14,0,2,0,0,7,10,8,7,7,7,9,2,0,3,8,0,3,3,0,10,8,9,7,7,0,8,9,7,9,7,9,7,9,3,9,1,2,1,0,7,10,7,1,2,8,5,8,1,3,8,8,9,0,0,0,0,0,0,0,0,0,0,0,0,0,0,0,0,0,0,0,0,0,0,0,0,0,0,0,0,0,0,0,0,0,0,0,0,0,0,0,0,0,0,0,0,0,0,0,0,0,0,0,0,0,0,0,0,0,0,0,0,0,0,0,0,0],"split_type":[0,0,0,0,0,0,0,0,0,0,0,0,0,0,0,0,0,0,0,0,0,0,0,0,0,0,0,0,0,0,0,0,0,0,0,0,0,0,0,0,0,0,0,0,0,0,0,0,0,0,0,0,0,0,0,0,0,0,0,0,0,0,0,0,0,0,0,0,0,0,0,0,0,0,0,0,0,0,0,0,0,0,0,0,0,0,0,0,0,0,0,0,0,0,0,0,0,0,0,0,0,0,0,0,0,0,0,0,0,0,0,0,0,0,0,0,0,0,0,0,0,0,0,0,0,0,0],"sum_hessian":[1.7985619E5,8.206627E4,9.7789914E4,3.0036078E4,5.2030195E4,4.4671598E4,5.3118316E4,5.6026436E3,2.4433434E4,2.9052242E4,2.2977955E4,1.2361229E4,3.2310371E4,3.7307258E4,1.5811059E4,2.7419258E3,2.8607178E3,1.4442828E4,9.990605E3,9.091214E3,1.9961027E4,9.441146E3,1.3536809E4,1.3701606E3,1.0991067E4,2.0192004E4,1.2118366E4,1.1461276E4,2.5845982E4,6.9544795E3,8.856579E3,1.6494574E3,1.0924685E3,6.484533E2,2.2122644E3,1.3623183E4,8.196457E2,5.264176E3,4.7264297E3,5.934035E3,3.1571787E3,3.9517563E3,1.6009271E4,2.5598303E3,6.8813154E3,6.766714E3,6.7700947E3,5.5713916E2,8.130214E2,1.9473561E3,9.043711E3,5.859914E3,1.433209E4,4.2839653E3,7.8344014E3,2.405848E3,9.055429E3,1.8491498E4,7.354484E3,2.844629E3,4.1098506E3,1.5083921E3,7.348187E3,1.2053987E3,4.4405875E2,6.6392126E2,4.285472E2,4.1721194E2,2.3124133E2,8.535188E2,1.3587456E3,1.0892558E4,2.730625E3,3.7638358E2,4.432621E2,6.74439E2,4.589737E3,3.4728057E3,1.2536238E3,1.7530049E3,4.1810303E3,1.9663939E3,1.1907847E3,1.8418881E3,2.1098684E3,1.1422021E4,4.5872505E3,1.1975964E3,1.362234E3,9.0280615E2,5.9785093E3,2.454799E3,4.311915E3,4.0470295E3,2.723065E3,2.743863E2,2.827529E2,5.093488E2,3.0367264E2,8.7402405E2,1.073332E3,2.5543613E3,6.48935E3,2.2593442E3,3.60057E3,6.430196E3,7.901894E3,3.0363206E3,1.2476449E3,1.3660798E3,6.4683213E3,1.5134852E3,8.9236255E2,7.105368E2,8.344892E3,9.718418E3,8.773081E3,2.4674731E3,4.8870107E3,1.2981714E3,1.5464574E3,3.4861972E2,3.761231E3,7.6506165E2,7.433304E2,2.8342246E3,4.5139624E3],"tree_param":{"num_deleted":"0","num_feature":"17","num_nodes":"127","size_leaf_vector":"1"}},{"base_weights":[-3.4235956E-3,3.2577536E-1,-3.8625926E-1,7.457096E-1,-1.327827E-1,2.4354305E-2,-5.6738484E-1,1.0061023E0,4.4921908E-1,-4.398542E-1,8.017162E-2,2.4354437E-1,-7.0332503E-1,-8.1553096E-1,-4.2271438E-1,5.3178273E-2,1.13714E0,6.443301E-1,1.5430981E-1,-2.4764332E-1,-6.83832E-1,6.01803E-1,-4.0197268E-1,-4.650479E-1,9.364377E-1,-2.967101E-1,-9.4621205E-1,-5.628046E-1,-9.573768E-1,-1.614125E-1,-7.8963333E-1,6.210283E-1,-4.484234E-1,1.2978674E0,5.320891E-1,1.4683671E-1,8.733066E-1,-9.100021E-2,6.6146165E-1,-3.4947395E-1,3.1756738E-1,-4.401954E-1,-9.250268E-1,1.2429172E0,2.0620458E-2,-6.34723E-1,-3.0931778E-2,1.7990339E-1,-6.482643E-1,1.1488316E0,-2.9783605E-2,1.0767541E0,-4.584481E-1,-1.0658808E0,-4.470528E-1,-7.003676E-1,2.523269E-1,-3.3453003E-1,-1.0209476E0,1.4842848E-1,-5.981614E-1,-9.842778E-1,-4.5623973E-1,1.132815E-1,-3.4525243E-3,-8.541281E-2,-1.7031502E-2,7.2021164E-2,1.3476585E-1,1.7946584E-2,1.2007826E-1,1.08583115E-1,-5.5356372E-2,6.553448E-2,1.2003527E-1,-7.440137E-2,1.5993439E-2,1.2928848E-1,-5.455852E-3,1.5190065E-2,-5.3866625E-2,-1.0361061E-1,6.833061E-2,-6.066748E-2,2.380056E-3,-4.778908E-2,-1.0392771E-1,1.5860039E-1,9.018354E-2,4.141337E-2,-3.1603567E-2,-7.866401E-2,-1.3562425E-2,9.3449704E-2,-4.3460462E-2,7.417275E-2,-4.854999E-2,-7.542645E-2,9.4608925E-3,8.250124E-2,1.4575695E-1,-9.249437E-2,9.978732E-2,3.278066E-2,2.1898273E-1,-8.229887E-2,4.8668593E-2,-6.011473E-2,-1.1133581E-1,6.350317E-2,-9.771185E-2,-4.887798E-2,-8.319395E-2,1.04632095E-1,-6.5312035E-2,3.6833003E-2,-9.3642086E-2,-7.545624E-2,-1.1462072E-1,-2.3104861E-2,5.1027816E-2,-4.556108E-3,-7.465777E-2,-5.1253606E-2,-1.07508E-1,2.2691803E-2,-8.159E-2],"categories":[],"categories_nodes":[],"categories_segments":[],"categories_sizes":[],"default_left":[0,0,0,0,0,0,0,0,0,0,0,0,0,0,0,0,0,0,0,0,0,0,0,0,0,0,0,0,0,0,0,0,0,0,0,0,0,0,0,0,0,0,0,0,0,0,0,0,0,0,0,0,0,0,0,0,0,0,0,0,0,0,0,0,0,0,0,0,0,0,0,0,0,0,0,0,0,0,0,0,0,0,0,0,0,0,0,0,0,0,0,0,0,0,0,0,0,0,0,0,0,0,0,0,0,0,0,0,0,0,0,0,0,0,0,0,0,0,0,0,0,0,0,0,0,0,0],"id":6,"left_children":[1,3,5,7,9,11,13,15,17,19,21,23,25,27,29,31,33,35,37,39,41,43,45,47,49,51,53,55,57,59,61,63,65,67,69,71,73,75,77,79,81,83,85,87,89,91,93,95,97,99,101,103,105,107,109,111,113,115,117,119,121,123,125,-1,-1,-1,-1,-1,-1,-1,-1,-1,-1,-1,-1,-1,-1,-1,-1,-1,-1,-1,-1,-1,-1,-1,-1,-1,-1,-1,-1,-1,-1,-1,-1,-1,-1,-1,-1,-1,-1,-1,-1,-1,-1,-1,-1,-1,-1,-1,-1,-1,-1,-1,-1,-1,-1,-1,-1,-1,-1,-1,-1,-1,-1,-1,-1],"loss_changes":[2.220918E4,1.8245297E4,6.059448E3,3.8178555E3,2.9617993E3,3.978E3,2.029252E3,3.287838E3,1.3306602E3,8.696272E2,6.7268105E3,9.410979E3,5.699133E2,7.4583594E2,3.4242217E3,9.0722516E2,2.2503809E3,1.5853926E3,1.1458698E3,5.9731116E2,4.798496E2,4.7868774E3,1.2003376E3,1.1199451E3,1.9888447E3,4.8042773E2,2.1539868E2,8.397334E2,5.27626E2,2.8231475E3,9.635742E2,5.012334E2,1.9067938E2,5.250469E2,1.1457826E3,2.8865957E3,6.786421E2,1.01743744E3,1.3576123E3,8.3410486E2,7.85194E2,3.1422357E2,2.0925977E2,7.1340137E2,8.9297736E2,6.475193E2,2.0889185E3,7.844281E2,5.812417E2,7.930752E2,1.6083665E3,1.8927759E2,6.665945E2,6.363452E1,4.0246118E2,1.7794067E2,7.78441E2,5.2339825E2,4.0283887E2,1.6759915E3,7.1004834E2,4.0118555E2,1.3461262E3,0E0,0E0,0E0,0E0,0E0,0E0,0E0,0E0,0E0,0E0,0E0,0E0,0E0,0E0,0E0,0E0,0E0,0E0,0E0,0E0,0E0,0E0,0E0,0E0,0E0,0E0,0E0,0E0,0E0,0E0,0E0,0E0,0E0,0E0,0E0,0E0,0E0,0E0,0E0,0E0,0E0,0E0,0E0,0E0,0E0,0E0,0E0,0E0,0E0,0E0,0E0,0E0,0E0,0E0,0E0,0E0,0E0,0E0,0E0,0E0,0E0,0E0,0E0,0E0],"parents":[2147483647,0,0,1,1,2,2,3,3,4,4,5,5,6,6,7,7,8,8,9,9,10,10,11,11,12,12,13,13,14,14,15,15,16,16,17,17,18,18,19,19,20,20,21,21,22,22,23,23,24,24,25,25,26,26,27,27,28,28,29,29,30,30,31,31,32,32,33,33,34,34,35,35,36,36,37,37,38,38,39,39,40,40,41,41,42,42,43,43,44,44,45,45,46,46,47,47,48,48,49,49,50,50,51,51,52,52,53,53,54,54,55,55,56,56,57,57,58,58,59,59,60,60,61,61,62,62],"right_children":[2,4,6,8,10,12,14,16,18,20,22,24,26,28,30,32,34,36,38,40,42,44,46,48,50,52,54,56,58,60,62,64,66,68,70,72,74,76,78,80,82,84,86,88,90,92,94,96,98,100,102,104,106,108,110,112,114,116,118,120,122,124,126,-1,-1,-1,-1,-1,-1,-1,-1,-1,-1,-1,-1,-1,-1,-1,-1,-1,-1,-1,-1,-1,-1,-1,-1,-1,-1,-1,-1,-1,-1,-1,-1,-1,-1,-1,-1,-1,-1,-1,-1,-1,-1,-1,-1,-1,-1,-1,-1,-1,-1,-1,-1,-1,-1,-1,-1,-1,-1,-1,-1,-1,-1,-1,-1],"split_conditions":[2.0940425E0,-1.1857919E0,-1.7184548E0,-1.755963E0,-1.7196571E0,7.6607716E-1,-1.9845543E0,-3.5794216E-1,9.7247356E-1,-5.432057E-1,2.681079E-1,-1.955479E0,-1.574183E0,-1.5847446E0,5.603931E-1,-2.58551E-1,1.5878626E0,-1.6684718E-1,1.0213097E0,1.9600937E0,-1.2213262E0,-1.2986947E0,6.933088E-1,-1.6609652E0,2.681079E-1,-2.2073383E0,1.7209543E0,2.0927587E0,-2.234475E0,-7.641757E-1,8.0191284E-1,-1.0793495E0,-1.7196571E0,-2.0855565E-1,8.909728E-1,-4.9984565E-1,-9.744965E-1,-2.7475297E0,-1.1457304E0,-1.547488E0,-1.0415096E-1,1.3924592E0,-1.7044139E0,-1.8605297E0,-7.074947E-1,1.5240989E0,9.418242E-1,-1.1565241E0,2.24727E0,-8.781456E-1,2.599475E-1,1.8552003E0,1.5238802E0,-2.234475E0,-1.670609E0,-1.5362707E0,-1.223878E0,3.2560103E0,-1.6885921E0,-7.306266E-1,-1.6609652E0,-2.0613475E0,1.236932E0,1.132815E-1,-3.4525243E-3,-8.541281E-2,-1.7031502E-2,7.2021164E-2,1.3476585E-1,1.7946584E-2,1.2007826E-1,1.08583115E-1,-5.5356372E-2,6.553448E-2,1.2003527E-1,-7.440137E-2,1.5993439E-2,1.2928848E-1,-5.455852E-3,1.5190065E-2,-5.3866625E-2,-1.0361061E-1,6.833061E-2,-6.066748E-2,2.380056E-3,-4.778908E-2,-1.0392771E-1,1.5860039E-1,9.018354E-2,4.141337E-2,-3.1603567E-2,-7.866401E-2,-1.3562425E-2,9.3449704E-2,-4.3460462E-2,7.417275E-2,-4.854999E-2,-7.542645E-2,9.4608925E-3,8.250124E-2,1.4575695E-1,-9.249437E-2,9.978732E-2,3.278066E-2,2.1898273E-1,-8.229887E-2,4.8668593E-2,-6.011473E-2,-1.1133581E-1,6.350317E-2,-9.771185E-2,-4.887798E-2,-8.319395E-2,1.04632095E-1,-6.5312035E-2,3.6833003E-2,-9.3642086E-2,-7.545624E-2,-1.1462072E-1,-2.3104861E-2,5.1027816E-2,-4.556108E-3,-7.465777E-2,-5.1253606E-2,-1.07508E-1,2.2691803E-2,-8.159E-2],"split_indices":[7,8,1,8,0,0,0,7,7,8,0,0,3,10,0,9,7,7,9,9,10,1,2,2,0,2,9,9,8,1,2,10,0,7,9,9,10,0,10,9,7,9,2,1,1,9,0,3,2,0,2,0,2,8,8,3,8,7,3,0,2,8,0,0,0,0,0,0,0,0,0,0,0,0,0,0,0,0,0,0,0,0,0,0,0,0,0,0,0,0,0,0,0,0,0,0,0,0,0,0,0,0,0,0,0,0,0,0,0,0,0,0,0,0,0,0,0,0,0,0,0,0,0,0,0,0,0],"split_type":[0,0,0,0,0,0,0,0,0,0,0,0,0,0,0,0,0,0,0,0,0,0,0,0,0,0,0,0,0,0,0,0,0,0,0,0,0,0,0,0,0,0,0,0,0,0,0,0,0,0,0,0,0,0,0,0,0,0,0,0,0,0,0,0,0,0,0,0,0,0,0,0,0,0,0,0,0,0,0,0,0,0,0,0,0,0,0,0,0,0,0,0,0,0,0,0,0,0,0,0,0,0,0,0,0,0,0,0,0,0,0,0,0,0,0,0,0,0,0,0,0,0,0,0,0,0,0],"sum_hessian":[1.7622064E5,9.474764E4,8.147299E4,4.9456336E4,4.529131E4,2.4938352E4,5.6534645E4,2.6329799E4,2.3126535E4,1.854668E4,2.6744627E4,1.9165902E4,5.772448E3,2.0819438E4,3.5715207E4,3.183118E3,2.314668E4,1.3917546E4,9.20899E3,1.0375027E4,8.171653E3,1.2846146E4,1.389848E4,9.47577E3,9.690134E3,2.1594893E3,3.612959E3,7.486219E3,1.3333218E4,2.0860682E4,1.4854525E4,1.4928564E3,1.6902616E3,1.8287572E4,4.859107E3,4.387197E3,9.53035E3,6.2073213E3,3.001669E3,8.791498E3,1.5835299E3,4.066654E3,4.1049985E3,6.107596E3,6.7385503E3,8.5404375E3,5.3580435E3,2.0963381E3,7.379431E3,7.943755E3,1.7463783E3,2.2691248E2,1.9325769E3,2.9133706E3,6.995885E2,6.405377E3,1.0808422E3,1.2354012E3,1.2097816E4,1.2203711E4,8.65697E3,9.377644E3,5.476882E3,8.379477E2,6.5490875E2,6.8659094E2,1.0036706E3,1.4524407E3,1.6835133E4,3.1822656E3,1.6768412E3,1.8741117E3,2.513085E3,5.7207354E3,3.8096138E3,1.7225973E3,4.4847236E3,1.5946338E3,1.4070353E3,2.408631E3,6.3828667E3,3.3644507E2,1.2470848E3,2.9926123E3,1.0740416E3,8.364816E2,3.268517E3,3.0430293E3,3.064567E3,3.106809E3,3.6317412E3,6.5470513E3,1.9933857E3,1.5794049E3,3.7786387E3,1.1365734E3,9.597648E2,6.4579355E3,9.214956E2,3.8789717E3,4.0647834E3,9.334119E2,8.129664E2,1.3641689E2,9.049559E1,1.3947483E3,5.3782855E2,2.7130875E2,2.6420618E3,2.2995557E2,4.6963293E2,2.4577124E3,3.9476648E3,5.757802E2,5.050619E2,5.7007837E2,6.6532294E2,3.8714888E3,8.226328E3,5.956941E3,6.2467705E3,1.8330941E3,6.8238755E3,1.5147512E3,7.8628926E3,1.8890634E3,3.5878186E3],"tree_param":{"num_deleted":"0","num_feature":"17","num_nodes":"127","size_leaf_vector":"1"}},{"base_weights":[-3.422383E-3,2.863037E-1,-3.7577528E-1,8.267522E-1,-1.21463295E-2,-9.806477E-2,-6.1325794E-1,6.559202E-2,9.27513E-1,1.7167634E-1,-3.0940762E-1,-6.774129E-1,1.17266536E-1,-3.6167783E-1,-7.3255086E-1,6.020426E-1,-4.059558E-1,1.110247E0,4.0259525E-1,-1.9941175E-1,3.178244E-1,9.650093E-2,-4.647446E-1,-1.1895669E-1,-8.143035E-1,5.820651E-1,-5.7066137E-1,-4.7791815E-1,3.4159705E-1,-2.1393698E-1,-7.9197335E-1,1.0723587E0,1.5073444E-1,6.3953936E-2,-6.496298E-1,1.3356727E0,8.435232E-1,1.0697901E-1,1.0449586E0,3.2483492E-2,-5.9106106E-1,5.9329903E-1,-1.5358162E-1,-3.6135474E-1,4.1779447E-1,-2.5942683E-1,-6.7179394E-1,2.2666204E-1,-7.069256E-1,-9.2039126E-1,-3.183839E-1,2.0097211E-1,1.222515E0,-8.432461E-1,-1.9725387E-1,-2.414679E-1,-6.155668E-1,1.2547563E0,-3.384659E-1,4.2552307E-1,-6.6090167E-1,-9.86372E-1,-6.5886086E-1,1.2991397E-1,4.934643E-2,5.272728E-2,-2.3281356E-2,3.965592E-2,-1.0185286E-1,-9.046001E-2,-4.5220234E-2,7.856419E-2,1.3789746E-1,1.1264198E-1,4.6248853E-2,9.848372E-2,-1.032293E-2,1.5279607E-1,3.69807E-2,6.673653E-2,-1.3062666E-2,-9.096598E-2,-3.6158734E-3,8.520503E-2,1.690398E-2,9.226203E-3,-5.494365E-2,7.0110686E-2,-5.9657957E-2,1.3425116E-1,-4.6953272E-2,-4.3390077E-2,2.2075688E-2,-9.509733E-2,-5.1413804E-2,-3.9301466E-2,6.2034376E-2,-1.0109981E-1,-2.0325951E-2,-9.740963E-2,-4.8426937E-2,4.153068E-2,-7.491962E-2,6.670745E-2,-1.9447265E-2,1.3349989E-1,5.033152E-2,-9.340928E-2,-2.5984054E-2,6.5616995E-2,-7.545795E-2,-3.718875E-2,1.52633935E-2,-3.6667153E-2,-7.008978E-2,1.6383217E-1,5.4804027E-2,2.7091373E-2,-5.743155E-2,1.7543037E-1,2.1880087E-2,-8.7182395E-2,1.2659329E-2,-7.106911E-2,-1.1189306E-1,-4.594181E-2,-1.0222051E-1],"categories":[],"categories_nodes":[],"categories_segments":[],"categories_sizes":[],"default_left":[0,0,0,0,0,0,0,0,0,0,0,0,0,0,0,0,0,0,0,0,0,0,0,0,0,0,0,0,0,0,0,0,0,0,0,0,0,0,0,0,0,0,0,0,0,0,0,0,0,0,0,0,0,0,0,0,0,0,0,0,0,0,0,0,0,0,0,0,0,0,0,0,0,0,0,0,0,0,0,0,0,0,0,0,0,0,0,0,0,0,0,0,0,0,0,0,0,0,0,0,0,0,0,0,0,0,0,0,0,0,0,0,0,0,0,0,0,0,0,0,0,0,0,0,0,0,0],"id":7,"left_children":[1,3,5,7,9,11,13,15,17,19,21,23,25,27,29,31,33,35,37,39,41,43,45,47,49,51,53,55,57,59,61,63,65,67,69,71,73,75,77,79,81,83,85,87,89,91,93,95,97,99,101,103,105,107,109,111,113,115,117,119,121,123,125,-1,-1,-1,-1,-1,-1,-1,-1,-1,-1,-1,-1,-1,-1,-1,-1,-1,-1,-1,-1,-1,-1,-1,-1,-1,-1,-1,-1,-1,-1,-1,-1,-1,-1,-1,-1,-1,-1,-1,-1,-1,-1,-1,-1,-1,-1,-1,-1,-1,-1,-1,-1,-1,-1,-1,-1,-1,-1,-1,-1,-1,-1,-1,-1],"loss_changes":[1.8603416E4,1.5643057E4,4.9767637E3,2.6461562E3,3.414218E3,4.3396987E3,1.2205225E3,1.02083875E3,2.9221953E3,2.0938955E3,1.5053857E3,7.204956E2,8.1094717E3,1.0699205E3,8.5014355E2,4.005384E2,2.459719E2,1.3577871E3,1.4942668E3,9.908275E2,3.5971096E3,9.7231305E2,7.3385254E2,3.7749313E2,3.9797998E2,3.6939014E3,1.04074E3,3.6536108E2,1.1534403E3,8.113842E2,6.399375E2,1.2069922E2,1.3942091E2,2.6479175E2,7.079138E1,2.9060547E2,1.1156704E3,9.9482684E2,8.081902E2,7.097701E2,7.1725085E2,1.9190947E3,9.943684E2,6.8161285E2,3.1874734E3,7.265709E2,3.7788013E2,2.8571597E2,1.051091E2,1.4557812E2,4.2246088E2,1.7493654E3,4.5609668E2,3.1304248E2,2.053578E3,2.1252655E2,1.5048193E2,2.1399048E2,1.5321289E2,3.204865E2,2.7761835E2,3.6681445E2,1.0645542E3,0E0,0E0,0E0,0E0,0E0,0E0,0E0,0E0,0E0,0E0,0E0,0E0,0E0,0E0,0E0,0E0,0E0,0E0,0E0,0E0,0E0,0E0,0E0,0E0,0E0,0E0,0E0,0E0,0E0,0E0,0E0,0E0,0E0,0E0,0E0,0E0,0E0,0E0,0E0,0E0,0E0,0E0,0E0,0E0,0E0,0E0,0E0,0E0,0E0,0E0,0E0,0E0,0E0,0E0,0E0,0E0,0E0,0E0,0E0,0E0,0E0,0E0,0E0,0E0],"parents":[2147483647,0,0,1,1,2,2,3,3,4,4,5,5,6,6,7,7,8,8,9,9,10,10,11,11,12,12,13,13,14,14,15,15,16,16,17,17,18,18,19,19,20,20,21,21,22,22,23,23,24,24,25,25,26,26,27,27,28,28,29,29,30,30,31,31,32,32,33,33,34,34,35,35,36,36,37,37,38,38,39,39,40,40,41,41,42,42,43,43,44,44,45,45,46,46,47,47,48,48,49,49,50,50,51,51,52,52,53,53,54,54,55,55,56,56,57,57,58,58,59,59,60,60,61,61,62,62],"right_children":[2,4,6,8,10,12,14,16,18,20,22,24,26,28,30,32,34,36,38,40,42,44,46,48,50,52,54,56,58,60,62,64,66,68,70,72,74,76,78,80,82,84,86,88,90,92,94,96,98,100,102,104,106,108,110,112,114,116,118,120,122,124,126,-1,-1,-1,-1,-1,-1,-1,-1,-1,-1,-1,-1,-1,-1,-1,-1,-1,-1,-1,-1,-1,-1,-1,-1,-1,-1,-1,-1,-1,-1,-1,-1,-1,-1,-1,-1,-1,-1,-1,-1,-1,-1,-1,-1,-1,-1,-1,-1,-1,-1,-1,-1,-1,-1,-1,-1,-1,-1,-1,-1,-1,-1,-1,-1],"split_conditions":[2.2197714E0,-1.5659997E0,-1.3557975E0,-3.5794216E-1,-6.2945414E-1,-2.686681E0,-1.6706861E0,-2.8028238E-1,1.5666432E0,-2.717697E0,-1.76593E0,-1.8157579E0,2.971902E-1,2.07048E0,-2.205603E0,-1.2213262E0,-1.6424907E0,-1.9477128E0,1.0653185E0,1.1006277E0,5.901564E-1,-1.6905032E0,-1.2213262E0,-9.745613E-1,1.8735456E0,-8.1871E-1,5.637517E-1,1.2860735E-1,-1.4710298E0,3.213589E0,-1.6617217E0,-9.779972E-1,1.7381455E-1,9.418242E-1,-1.4263574E0,-2.3011605E-1,7.635684E-1,-2.0502028E0,-1.0319955E0,7.096086E-2,8.4614E-1,-9.368446E-1,1.0583271E0,-1.8372624E0,2.971902E-1,1.3924592E0,-2.0136487E0,-3.97862E0,-3.4214275E0,2.3125587E0,-1.6610843E0,-1.9362526E0,1.495245E-1,2.07048E0,1.1486479E0,-6.1039007E-1,2.8542793E0,3.823359E0,-1.06165E0,-1.962119E0,1.7639675E0,-1.6885921E0,9.418242E-1,1.2991397E-1,4.934643E-2,5.272728E-2,-2.3281356E-2,3.965592E-2,-1.0185286E-1,-9.046001E-2,-4.5220234E-2,7.856419E-2,1.3789746E-1,1.1264198E-1,4.6248853E-2,9.848372E-2,-1.032293E-2,1.5279607E-1,3.69807E-2,6.673653E-2,-1.3062666E-2,-9.096598E-2,-3.6158734E-3,8.520503E-2,1.690398E-2,9.226203E-3,-5.494365E-2,7.0110686E-2,-5.9657957E-2,1.3425116E-1,-4.6953272E-2,-4.3390077E-2,2.2075688E-2,-9.509733E-2,-5.1413804E-2,-3.9301466E-2,6.2034376E-2,-1.0109981E-1,-2.0325951E-2,-9.740963E-2,-4.8426937E-2,4.153068E-2,-7.491962E-2,6.670745E-2,-1.9447265E-2,1.3349989E-1,5.033152E-2,-9.340928E-2,-2.5984054E-2,6.5616995E-2,-7.545795E-2,-3.718875E-2,1.52633935E-2,-3.6667153E-2,-7.008978E-2,1.6383217E-1,5.4804027E-2,2.7091373E-2,-5.743155E-2,1.7543037E-1,2.1880087E-2,-8.7182395E-2,1.2659329E-2,-7.106911E-2,-1.1189306E-1,-4.594181E-2,-1.0222051E-1],"split_indices":[7,8,1,7,8,0,10,9,7,0,1,2,0,9,8,10,1,8,9,7,0,0,10,3,9,0,2,14,8,7,0,9,14,0,0,7,7,9,10,14,9,1,7,2,0,9,0,0,0,2,8,1,0,9,0,8,7,7,8,9,9,3,0,0,0,0,0,0,0,0,0,0,0,0,0,0,0,0,0,0,0,0,0,0,0,0,0,0,0,0,0,0,0,0,0,0,0,0,0,0,0,0,0,0,0,0,0,0,0,0,0,0,0,0,0,0,0,0,0,0,0,0,0,0,0,0,0],"split_type":[0,0,0,0,0,0,0,0,0,0,0,0,0,0,0,0,0,0,0,0,0,0,0,0,0,0,0,0,0,0,0,0,0,0,0,0,0,0,0,0,0,0,0,0,0,0,0,0,0,0,0,0,0,0,0,0,0,0,0,0,0,0,0,0,0,0,0,0,0,0,0,0,0,0,0,0,0,0,0,0,0,0,0,0,0,0,0,0,0,0,0,0,0,0,0,0,0,0,0,0,0,0,0,0,0,0,0,0,0,0,0,0,0,0,0,0,0,0,0,0,0,0,0,0,0,0,0],"sum_hessian":[1.7244292E5,9.6981945E4,7.546098E4,3.450207E4,6.247987E4,3.4785027E4,4.0675945E4,4.0335747E3,3.0468494E4,3.860651E4,2.3873361E4,9.424987E3,2.5360041E4,1.3084891E4,2.7591055E4,1.8868015E3,2.1467734E3,2.2599912E4,7.8685825E3,1.0908391E4,2.7698121E4,6.607579E3,1.7265781E4,1.8558339E3,7.569153E3,1.513454E4,1.02255E4,1.12292E4,1.8556906E3,2.8368499E3,2.4754205E4,9.2326984E2,9.635317E2,7.333303E2,1.413443E3,1.2246005E4,1.0353907E4,5.389497E3,2.4790854E3,6.852153E3,4.0562373E3,1.7481963E4,1.0216159E4,2.7246802E3,3.882899E3,8.670272E3,8.595509E3,1.169182E3,6.8665186E2,6.234587E3,1.3345662E3,9.489328E3,5.6452114E3,5.9099917E3,4.3155083E3,4.132766E3,7.096434E3,7.917362E2,1.0639543E3,1.1671246E3,1.6697252E3,1.0058405E4,1.4695801E4,6.624945E2,2.607753E2,4.8601968E2,4.77512E2,5.6145154E2,1.718788E2,6.152668E2,7.981762E2,8.9511774E2,1.1350888E4,5.9410547E3,4.4128525E3,1.0405085E3,4.348989E3,1.4444591E3,1.0346263E3,1.3999532E3,5.4521997E3,2.5763687E3,1.4798687E3,1.08584795E4,6.6234824E3,6.3026797E3,3.9134797E3,4.9352945E2,2.2311506E3,1.9011381E3,1.9817609E3,6.3596143E3,2.3106584E3,3.1003428E3,5.4951665E3,4.542186E2,7.1496344E2,4.275342E2,2.5911765E2,5.549923E3,6.8466394E2,4.937411E2,8.4082513E2,4.3552275E3,5.134101E3,4.8809653E3,7.6424603E2,5.1131777E3,7.968139E2,1.7047994E3,2.610709E3,3.105217E3,1.0275491E3,1.813136E3,5.283298E3,5.123458E2,2.793904E2,2.9684036E2,7.67114E2,1.5612021E2,1.01100446E3,1.3169E3,3.528251E2,3.2681086E3,6.7902964E3,9.489305E3,5.2064966E3],"tree_param":{"num_deleted":"0","num_feature":"17","num_nodes":"127","size_leaf_vector":"1"}},{"base_weights":[-3.3273299E-3,2.5083798E-1,-3.655E-1,7.132497E-1,-3.9354682E-2,3.1205796E-2,-5.156068E-1,1.5042873E-1,8.1329846E-1,-3.732957E-1,1.04480125E-1,-6.4479256E-1,2.2664657E-1,-7.879543E-1,-3.8080052E-1,6.713529E-1,-3.9248526E-1,1.0320877E0,3.2675752E-1,-1.4988191E-1,-6.078336E-1,3.570661E-1,-3.825729E-1,1.00772806E-1,-7.819203E-1,6.672192E-1,-5.076147E-1,-8.5346156E-1,-3.18292E-1,-1.7516191E-1,-7.549804E-1,3.551578E-1,1.0204138E0,2.0754631E-1,-5.533888E-1,1.2944635E0,7.4393845E-1,7.106747E-2,9.218801E-1,9.036415E-2,-5.0015813E-1,-7.431799E-1,-3.1898952E-1,6.457452E-1,-5.6403454E-2,-5.4207243E-2,-5.4570013E-1,5.33294E-1,-8.106626E-1,-4.0961206E-1,-9.032253E-1,1.1651239E-2,1.1644101E0,-1.5816891E-1,-8.4696734E-1,-6.198313E-1,-9.7564083E-1,5.480543E-1,-7.227423E-1,1.3365698E-1,-4.8839366E-1,-9.2166895E-1,-4.9272996E-1,8.21237E-2,-4.3466175E-3,1.159145E-1,5.335797E-2,-5.5779148E-2,1.2951384E-1,-9.5094785E-2,-2.8436E-2,1.353915E-1,1.1257763E-1,1.1448192E-1,4.075226E-2,9.519176E-2,-9.941849E-3,1.4567961E-1,2.748229E-2,-2.3288107E-2,4.942787E-2,-7.921226E-2,1.1703735E-3,-2.5581375E-2,-8.83823E-2,-9.201392E-2,-9.780916E-3,1.0713561E-3,8.894078E-2,1.3826506E-2,-3.8295418E-2,-2.9670058E-2,3.8438756E-2,-7.070052E-2,-1.6734144E-2,-6.2419283E-3,9.771077E-2,-1.03116095E-1,-1.2456964E-2,-7.073474E-2,1.0226517E-1,-1.1590148E-2,-9.646892E-2,6.852421E-2,-3.1839978E-2,1.3664721E-1,8.779179E-2,-5.386537E-2,4.640584E-2,-1.50723625E-2,-9.20215E-2,-2.5393698E-2,-7.151316E-2,-6.598391E-2,-1.0407796E-1,1.1012661E-1,-4.7874E-2,-1.7165685E-2,-9.0126425E-2,-2.2605969E-2,4.751572E-2,3.6644165E-3,-6.223082E-2,-4.62387E-2,-1.0115238E-1,-9.524184E-3,-9.0348564E-2],"categories":[],"categories_nodes":[],"categories_segments":[],"categories_sizes":[],"default_left":[0,0,0,0,0,0,0,0,0,0,0,0,0,0,0,0,0,0,0,0,0,0,0,0,0,0,0,0,0,0,0,0,0,0,0,0,0,0,0,0,0,0,0,0,0,0,0,0,0,0,0,0,0,0,0,0,0,0,0,0,0,0,0,0,0,0,0,0,0,0,0,0,0,0,0,0,0,0,0,0,0,0,0,0,0,0,0,0,0,0,0,0,0,0,0,0,0,0,0,0,0,0,0,0,0,0,0,0,0,0,0,0,0,0,0,0,0,0,0,0,0,0,0,0,0,0,0],"id":8,"left_children":[1,3,5,7,9,11,13,15,17,19,21,23,25,27,29,31,33,35,37,39,41,43,45,47,49,51,53,55,57,59,61,63,65,67,69,71,73,75,77,79,81,83,85,87,89,91,93,95,97,99,101,103,105,107,109,111,113,115,117,119,121,123,125,-1,-1,-1,-1,-1,-1,-1,-1,-1,-1,-1,-1,-1,-1,-1,-1,-1,-1,-1,-1,-1,-1,-1,-1,-1,-1,-1,-1,-1,-1,-1,-1,-1,-1,-1,-1,-1,-1,-1,-1,-1,-1,-1,-1,-1,-1,-1,-1,-1,-1,-1,-1,-1,-1,-1,-1,-1,-1,-1,-1,-1,-1,-1,-1],"loss_changes":[1.5546095E4,1.3316873E4,4.1472236E3,2.154586E3,2.9288328E3,2.5261318E3,1.8547295E3,1.6340227E3,3.4581895E3,9.617937E2,5.243308E3,4.3849402E2,4.7984287E3,5.143877E2,2.6005776E3,3.250609E2,2.7327536E2,1.6933926E3,1.5337117E3,7.9130963E2,3.4985645E2,3.349937E3,7.7961475E2,2.6339883E2,1.6321582E2,3.0215771E3,6.595209E2,4.1842773E2,7.184187E2,2.1101062E3,5.235454E2,2.877478E2,9.3993774E1,4.993118E2,2.383778E2,1.1609961E2,1.4403125E3,1.0590358E3,1.0480264E3,7.2842566E2,5.71718E2,4.1769775E2,3.8006027E2,2.5572432E3,7.336207E2,5.140213E2,5.933533E2,1.1982449E2,3.2408707E1,3.8108902E2,1.3205469E2,8.893504E2,3.0399023E2,6.4937146E2,1.437721E2,1.7568628E2,1.975625E2,3.7131378E2,1.3732593E2,1.3495171E3,7.6144604E2,3.0193213E2,7.608125E2,0E0,0E0,0E0,0E0,0E0,0E0,0E0,0E0,0E0,0E0,0E0,0E0,0E0,0E0,0E0,0E0,0E0,0E0,0E0,0E0,0E0,0E0,0E0,0E0,0E0,0E0,0E0,0E0,0E0,0E0,0E0,0E0,0E0,0E0,0E0,0E0,0E0,0E0,0E0,0E0,0E0,0E0,0E0,0E0,0E0,0E0,0E0,0E0,0E0,0E0,0E0,0E0,0E0,0E0,0E0,0E0,0E0,0E0,0E0,0E0,0E0,0E0,0E0,0E0],"parents":[2147483647,0,0,1,1,2,2,3,3,4,4,5,5,6,6,7,7,8,8,9,9,10,10,11,11,12,12,13,13,14,14,15,15,16,16,17,17,18,18,19,19,20,20,21,21,22,22,23,23,24,24,25,25,26,26,27,27,28,28,29,29,30,30,31,31,32,32,33,33,34,34,35,35,36,36,37,37,38,38,39,39,40,40,41,41,42,42,43,43,44,44,45,45,46,46,47,47,48,48,49,49,50,50,51,51,52,52,53,53,54,54,55,55,56,56,57,57,58,58,59,59,60,60,61,61,62,62],"right_children":[2,4,6,8,10,12,14,16,18,20,22,24,26,28,30,32,34,36,38,40,42,44,46,48,50,52,54,56,58,60,62,64,66,68,70,72,74,76,78,80,82,84,86,88,90,92,94,96,98,100,102,104,106,108,110,112,114,116,118,120,122,124,126,-1,-1,-1,-1,-1,-1,-1,-1,-1,-1,-1,-1,-1,-1,-1,-1,-1,-1,-1,-1,-1,-1,-1,-1,-1,-1,-1,-1,-1,-1,-1,-1,-1,-1,-1,-1,-1,-1,-1,-1,-1,-1,-1,-1,-1,-1,-1,-1,-1,-1,-1,-1,-1,-1,-1,-1,-1,-1,-1,-1,-1,-1,-1,-1],"split_conditions":[2.3443642E0,-1.4904836E0,-1.7938097E0,-2.5167498E-1,-2.5124316E0,-3.0697577E0,-2.1881328E0,-2.051925E-2,1.5666432E0,-7.8261113E-1,7.6607716E-1,-2.0552444E0,3.2681537E-1,2.1820054E0,7.06437E-1,-4.6343118E-1,-2.2445164E0,-1.9094441E0,1.152069E0,1.0365387E0,1.1090535E0,-1.0227709E0,-1.641746E0,-8.7964094E-1,-1.8700681E0,-1.6321741E0,-1.2888471E0,-1.651049E0,-1.755963E0,-9.5564055E-1,7.3623955E-1,-1.2882074E0,-5.159436E-1,-4.2174911E-1,-1.7196571E0,-2.0423713E0,6.135804E-1,-2.1590347E0,-1.1171972E0,-1.088589E0,8.909728E-1,-2.0059063E0,1.7234895E-1,-1.6032676E0,-5.8152497E-1,8.454307E-1,1.1957467E0,-4.0661235E0,-3.4214275E0,2.0060744E0,-2.273113E0,-1.0915642E0,-2.0511947E0,9.10929E-1,5.0186867E-1,-1.682918E0,-2.0420408E0,-9.4588935E-1,-1.908715E0,-7.6044923E-1,-1.7269157E0,-2.0710793E0,-1.2409286E0,8.21237E-2,-4.3466175E-3,1.159145E-1,5.335797E-2,-5.5779148E-2,1.2951384E-1,-9.5094785E-2,-2.8436E-2,1.353915E-1,1.1257763E-1,1.1448192E-1,4.075226E-2,9.519176E-2,-9.941849E-3,1.4567961E-1,2.748229E-2,-2.3288107E-2,4.942787E-2,-7.921226E-2,1.1703735E-3,-2.5581375E-2,-8.83823E-2,-9.201392E-2,-9.780916E-3,1.0713561E-3,8.894078E-2,1.3826506E-2,-3.8295418E-2,-2.9670058E-2,3.8438756E-2,-7.070052E-2,-1.6734144E-2,-6.2419283E-3,9.771077E-2,-1.03116095E-1,-1.2456964E-2,-7.073474E-2,1.0226517E-1,-1.1590148E-2,-9.646892E-2,6.852421E-2,-3.1839978E-2,1.3664721E-1,8.779179E-2,-5.386537E-2,4.640584E-2,-1.50723625E-2,-9.20215E-2,-2.5393698E-2,-7.151316E-2,-6.598391E-2,-1.0407796E-1,1.1012661E-1,-4.7874E-2,-1.7165685E-2,-9.0126425E-2,-2.2605969E-2,4.751572E-2,3.6644165E-3,-6.223082E-2,-4.62387E-2,-1.0115238E-1,-9.524184E-3,-9.0348564E-2],"split_indices":[7,8,1,7,0,0,0,9,7,8,0,2,0,9,0,7,8,8,9,7,9,1,3,3,3,0,3,3,8,1,2,10,10,7,0,8,7,9,10,10,9,9,7,0,8,2,9,0,0,2,8,2,1,2,0,2,10,10,10,0,2,8,3,0,0,0,0,0,0,0,0,0,0,0,0,0,0,0,0,0,0,0,0,0,0,0,0,0,0,0,0,0,0,0,0,0,0,0,0,0,0,0,0,0,0,0,0,0,0,0,0,0,0,0,0,0,0,0,0,0,0,0,0,0,0,0,0],"split_type":[0,0,0,0,0,0,0,0,0,0,0,0,0,0,0,0,0,0,0,0,0,0,0,0,0,0,0,0,0,0,0,0,0,0,0,0,0,0,0,0,0,0,0,0,0,0,0,0,0,0,0,0,0,0,0,0,0,0,0,0,0,0,0,0,0,0,0,0,0,0,0,0,0,0,0,0,0,0,0,0,0,0,0,0,0,0,0,0,0,0,0,0,0,0,0,0,0,0,0,0,0,0,0,0,0,0,0,0,0,0,0,0,0,0,0,0,0,0,0,0,0,0,0,0,0,0,0],"sum_hessian":[1.6888234E5,9.923887E4,6.9643484E4,3.8264418E4,6.097445E4,1.9118215E4,5.052527E4,5.7757354E3,3.2488684E4,1.8355928E4,4.261852E4,4.287195E3,1.483102E4,1.6727027E4,3.379824E4,2.9474397E3,2.8282954E3,2.2410115E4,1.0078568E4,9.401746E3,8.954182E3,2.8064514E4,1.4554007E4,6.660635E2,3.6211313E3,9.269319E3,5.561701E3,1.4678842E4,2.0481863E3,2.1812293E4,1.1985947E4,1.5475847E3,1.3998549E3,5.9799585E2,2.2302996E3,1.1727806E4,1.068231E4,7.050495E3,3.0280737E3,5.577212E3,3.8245344E3,6.096103E3,2.8580786E3,1.652583E4,1.1538685E4,4.8309395E3,9.723067E3,4.5198776E2,2.1407568E2,8.9096515E2,2.7301663E3,3.9983467E3,5.270972E3,2.7408245E3,2.8208765E3,5.042563E3,9.636279E3,6.517534E2,1.3964329E3,1.0983804E4,1.0828488E4,7.3265903E3,4.659357E3,7.1294037E2,8.346444E2,1.0883353E3,3.1151962E2,3.512844E2,2.4671146E2,8.9910565E2,1.331194E3,8.66642E3,3.0613865E3,4.873059E3,5.8092505E3,1.1425736E3,5.9079214E3,1.6569982E3,1.3710757E3,3.0982024E3,2.4790098E3,2.4350447E3,1.3894897E3,1.3658578E3,4.7302456E3,7.678813E2,2.0901973E3,4.5829136E3,1.1942917E4,7.229499E3,4.309185E3,3.1111494E3,1.7197903E3,6.816241E3,2.906826E3,1.9333768E2,2.586501E2,1.6162825E2,5.244744E1,7.380478E2,1.5291737E2,1.9791061E2,2.5322556E3,1.3145159E3,2.6838308E3,3.0887312E3,2.182241E3,1.7008865E3,1.039938E3,2.6880957E2,2.552067E3,1.0427421E3,3.999821E3,1.6496544E3,7.9866245E3,4.235061E2,2.282473E2,3.421622E2,1.0542706E3,5.349396E3,5.634408E3,2.2007495E3,8.627739E3,1.1998502E3,6.12674E3,2.3685469E3,2.29081E3],"tree_param":{"num_deleted":"0","num_feature":"17","num_nodes":"127","size_leaf_vector":"1"}},{"base_weights":[-3.2028242E-3,3.0077454E-1,-2.644577E-1,8.481781E-1,3.8116846E-2,-3.4883287E-2,-4.803368E-1,1.7928685E-1,1.0363977E0,3.070984E-1,-1.6524118E-1,-6.035186E-1,1.3582292E-1,-6.1730087E-1,-2.2167674E-1,6.796402E-1,-3.3645388E-1,1.263877E0,7.8117585E-1,7.554568E-1,1.9281125E-1,1.8688457E-1,-2.9669198E-1,-7.240007E-1,-1.575077E-1,5.094515E-1,-4.6889374E-1,-4.2303964E-1,-7.3254955E-1,9.7824596E-2,-5.9606606E-1,3.7089214E-1,1.0884576E0,2.6193708E-1,-5.3736436E-1,1.2842246E0,9.7787666E-1,1.2039868E0,4.09026E-1,9.5765686E-1,3.942466E-1,6.819067E-1,6.805577E-2,-1.9825642E-1,4.6933746E-1,2.4114719E-1,-4.0745342E-1,-5.503773E-2,-8.135963E-1,3.654904E-1,-6.5769655E-1,2.0987453E-1,1.0960929E0,-7.236855E-1,-1.2773316E-1,-6.558628E-1,-2.7134046E-1,-4.1685003E-1,-7.892944E-1,5.961098E-1,-3.3349216E-1,-7.270046E-1,-3.1717765E-1,7.9447806E-2,-3.9217533E-3,1.3549018E-1,9.035521E-2,-5.2337665E-2,1.17359795E-1,-4.7268933E-3,-7.9114735E-2,1.311649E-1,1.1665086E-1,5.3900387E-2,1.390327E-1,4.625171E-2,1.283678E-1,2.220839E-2,9.5491916E-2,2.7062774E-2,1.2587693E-1,9.708553E-4,9.493884E-2,1.11784436E-1,2.550671E-2,-1.8996198E-2,3.2304138E-2,9.888357E-2,-4.0472712E-2,1.3263538E-1,-2.805236E-2,9.8677464E-2,-2.3342641E-2,-6.0730614E-2,2.4303987E-3,5.7809867E-2,-5.841602E-2,-4.7915105E-2,-9.083667E-2,1.0452562E-1,-3.558659E-2,3.1453297E-3,-8.436606E-2,7.76884E-2,-4.746997E-3,1.2034684E-1,4.1696247E-2,-8.579206E-2,-2.4656191E-2,6.758066E-2,-6.2004235E-2,-3.5264436E-2,-8.510133E-2,-7.6037482E-3,-7.129778E-2,5.6144904E-2,-6.7749694E-2,-8.503958E-2,-5.233268E-2,9.401031E-2,2.3062347E-2,8.3792426E-2,-4.520191E-2,-9.416667E-2,-5.8845587E-2,3.708246E-2,-6.29439E-2],"categories":[],"categories_nodes":[],"categories_segments":[],"categories_sizes":[],"default_left":[0,0,0,0,0,0,0,0,0,0,0,0,0,0,0,0,0,0,0,0,0,0,0,0,0,0,0,0,0,0,0,0,0,0,0,0,0,0,0,0,0,0,0,0,0,0,0,0,0,0,0,0,0,0,0,0,0,0,0,0,0,0,0,0,0,0,0,0,0,0,0,0,0,0,0,0,0,0,0,0,0,0,0,0,0,0,0,0,0,0,0,0,0,0,0,0,0,0,0,0,0,0,0,0,0,0,0,0,0,0,0,0,0,0,0,0,0,0,0,0,0,0,0,0,0,0,0],"id":9,"left_children":[1,3,5,7,9,11,13,15,17,19,21,23,25,27,29,31,33,35,37,39,41,43,45,47,49,51,53,55,57,59,61,63,65,67,69,71,73,75,77,79,81,83,85,87,89,91,93,95,97,99,101,103,105,107,109,111,113,115,117,119,121,123,125,-1,-1,-1,-1,-1,-1,-1,-1,-1,-1,-1,-1,-1,-1,-1,-1,-1,-1,-1,-1,-1,-1,-1,-1,-1,-1,-1,-1,-1,-1,-1,-1,-1,-1,-1,-1,-1,-1,-1,-1,-1,-1,-1,-1,-1,-1,-1,-1,-1,-1,-1,-1,-1,-1,-1,-1,-1,-1,-1,-1,-1,-1,-1,-1],"loss_changes":[1.3118037E4,1.097734E4,4.4026055E3,3.116498E3,2.82222E3,4.179152E3,1.6217998E3,1.4033816E3,1.1206348E3,1.1380991E3,1.3600526E3,5.3405225E2,7.4817266E3,6.6981934E2,1.8961558E3,3.4799768E2,3.2212592E2,5.817871E1,1.4324814E3,3.2914404E2,1.0801176E3,8.690017E2,1.2746527E3,4.690205E2,5.536328E2,3.5968247E3,1.0991816E3,3.9355298E2,3.361953E2,1.8384927E3,2.6630347E2,2.7347897E2,5.726233E1,4.830618E2,2.4938562E2,2.9238281E1,1.2280054E2,2.512876E2,4.942412E2,5.979011E2,3.4600818E2,6.691509E2,9.2810114E2,8.288671E2,2.9618848E3,1.2933203E3,1.5309309E3,3.1036438E2,2.1831592E2,5.0777972E2,1.3864801E2,1.9772007E3,5.0401758E2,4.634414E2,2.1397527E3,2.5989966E2,5.822889E2,7.3072363E2,2.5830273E2,4.987827E2,6.3704333E2,1.471438E2,5.016051E2,0E0,0E0,0E0,0E0,0E0,0E0,0E0,0E0,0E0,0E0,0E0,0E0,0E0,0E0,0E0,0E0,0E0,0E0,0E0,0E0,0E0,0E0,0E0,0E0,0E0,0E0,0E0,0E0,0E0,0E0,0E0,0E0,0E0,0E0,0E0,0E0,0E0,0E0,0E0,0E0,0E0,0E0,0E0,0E0,0E0,0E0,0E0,0E0,0E0,0E0,0E0,0E0,0E0,0E0,0E0,0E0,0E0,0E0,0E0,0E0,0E0,0E0,0E0,0E0],"parents":[2147483647,0,0,1,1,2,2,3,3,4,4,5,5,6,6,7,7,8,8,9,9,10,10,11,11,12,12,13,13,14,14,15,15,16,16,17,17,18,18,19,19,20,20,21,21,22,22,23,23,24,24,25,25,26,26,27,27,28,28,29,29,30,30,31,31,32,32,33,33,34,34,35,35,36,36,37,37,38,38,39,39,40,40,41,41,42,42,43,43,44,44,45,45,46,46,47,47,48,48,49,49,50,50,51,51,52,52,53,53,54,54,55,55,56,56,57,57,58,58,59,59,60,60,61,61,62,62],"right_children":[2,4,6,8,10,12,14,16,18,20,22,24,26,28,30,32,34,36,38,40,42,44,46,48,50,52,54,56,58,60,62,64,66,68,70,72,74,76,78,80,82,84,86,88,90,92,94,96,98,100,102,104,106,108,110,112,114,116,118,120,122,124,126,-1,-1,-1,-1,-1,-1,-1,-1,-1,-1,-1,-1,-1,-1,-1,-1,-1,-1,-1,-1,-1,-1,-1,-1,-1,-1,-1,-1,-1,-1,-1,-1,-1,-1,-1,-1,-1,-1,-1,-1,-1,-1,-1,-1,-1,-1,-1,-1,-1,-1,-1,-1,-1,-1,-1,-1,-1,-1,-1,-1,-1,-1,-1,-1],"split_conditions":[1.6722455E0,-1.6045171E0,-1.2986947E0,-2.0855565E-1,-9.5552206E-1,-2.9806197E0,9.350832E-1,-2.051925E-2,-1.9661584E0,7.096086E-2,-1.7753114E0,1.6997526E0,2.971902E-1,1.3002281E-1,3.2560103E0,-4.2174911E-1,-2.234475E0,1.5666432E0,7.2160697E-1,8.266382E-1,-1.6565579E0,-1.6321741E0,-1.8748895E0,-2.2297008E0,-1.3754025E0,-8.1871E-1,5.637517E-1,-1.7196571E0,-2.224014E0,-1.3549314E0,2.226461E0,-1.2033912E0,1.3680565E-1,-4.2174911E-1,-1.6424907E0,-2.051659E0,-2.8028238E-1,-1.2544256E-1,1.3265731E0,-2.3011605E-1,5.207953E-1,4.6472666E-1,-1.2213262E0,-2.012425E0,2.971902E-1,2.3517513E-1,1.3924592E0,-1.4504856E0,-1.9379758E0,-1.2304994E0,-1.9569622E0,-1.1135046E0,1.495245E-1,1.6118299E0,1.0907407E0,-1.5457585E0,1.0907407E0,-1.9477128E0,1.7636157E0,2.4495778E0,-2.253981E0,-1.7487391E0,-1.7656951E0,7.9447806E-2,-3.9217533E-3,1.3549018E-1,9.035521E-2,-5.2337665E-2,1.17359795E-1,-4.7268933E-3,-7.9114735E-2,1.311649E-1,1.1665086E-1,5.3900387E-2,1.390327E-1,4.625171E-2,1.283678E-1,2.220839E-2,9.5491916E-2,2.7062774E-2,1.2587693E-1,9.708553E-4,9.493884E-2,1.11784436E-1,2.550671E-2,-1.8996198E-2,3.2304138E-2,9.888357E-2,-4.0472712E-2,1.3263538E-1,-2.805236E-2,9.8677464E-2,-2.3342641E-2,-6.0730614E-2,2.4303987E-3,5.7809867E-2,-5.841602E-2,-4.7915105E-2,-9.083667E-2,1.0452562E-1,-3.558659E-2,3.1453297E-3,-8.436606E-2,7.76884E-2,-4.746997E-3,1.2034684E-1,4.1696247E-2,-8.579206E-2,-2.4656191E-2,6.758066E-2,-6.2004235E-2,-3.5264436E-2,-8.510133E-2,-7.6037482E-3,-7.129778E-2,5.6144904E-2,-6.7749694E-2,-8.503958E-2,-5.233268E-2,9.401031E-2,2.3062347E-2,8.3792426E-2,-4.520191E-2,-9.416667E-2,-5.8845587E-2,3.708246E-2,-6.29439E-2],"split_indices":[7,8,1,7,8,0,9,9,8,14,1,9,0,14,7,7,8,7,7,7,9,0,9,2,8,0,2,0,9,10,9,10,14,7,1,8,9,7,9,7,9,7,10,2,0,7,9,3,3,10,10,2,0,9,0,3,0,8,2,7,8,0,8,0,0,0,0,0,0,0,0,0,0,0,0,0,0,0,0,0,0,0,0,0,0,0,0,0,0,0,0,0,0,0,0,0,0,0,0,0,0,0,0,0,0,0,0,0,0,0,0,0,0,0,0,0,0,0,0,0,0,0,0,0,0,0,0],"split_type":[0,0,0,0,0,0,0,0,0,0,0,0,0,0,0,0,0,0,0,0,0,0,0,0,0,0,0,0,0,0,0,0,0,0,0,0,0,0,0,0,0,0,0,0,0,0,0,0,0,0,0,0,0,0,0,0,0,0,0,0,0,0,0,0,0,0,0,0,0,0,0,0,0,0,0,0,0,0,0,0,0,0,0,0,0,0,0,0,0,0,0,0,0,0,0,0,0,0,0,0,0,0,0,0,0,0,0,0,0,0,0,0,0,0,0,0,0,0,0,0,0,0,0,0,0,0,0],"sum_hessian":[1.6518017E5,7.634753E4,8.883263E4,2.4754525E4,5.1593004E4,4.3051312E4,4.5781324E4,5.4364688E3,1.9318057E4,2.22123E4,2.9380705E4,9.939512E3,3.31118E4,2.9931037E4,1.5850288E4,2.759237E3,2.6772314E3,1.021208E4,9.105977E3,4.510724E3,1.7701576E4,7.986453E3,2.1394252E4,7.825079E3,2.1144324E3,2.046655E4,1.264525E4,1.114682E4,1.8784217E4,8.552436E3,7.297852E3,1.5731023E3,1.1861346E3,6.7286615E2,2.0043654E3,9.530533E3,6.8154645E2,4.2617896E3,4.844187E3,2.8908298E3,1.6198943E3,3.5966575E3,1.4104919E4,3.3791216E3,4.6073315E3,3.6532922E3,1.7740959E4,9.244343E2,6.9006445E3,1.0337799E3,1.0806525E3,1.3548942E4,6.9176074E3,7.2382935E3,5.4069565E3,4.3962573E3,6.7505625E3,2.8631963E3,1.59210205E4,3.967982E3,4.5844536E3,4.965116E3,2.332736E3,7.73376E2,7.997264E2,4.833344E2,7.028003E2,3.617108E2,3.1115536E2,6.842177E2,1.3201476E3,7.721519E3,1.8090146E3,3.3131433E2,3.502321E2,4.1425366E2,3.8475361E3,3.6095105E3,1.2346765E3,8.814896E2,2.0093402E3,9.575984E2,6.622959E2,1.7785642E3,1.8180933E3,7.0109023E3,7.0940166E3,5.000903E2,2.8790312E3,2.149686E3,2.4576453E3,1.4204576E3,2.2328347E3,1.2127125E4,5.6138345E3,4.2080988E2,5.0362445E2,1.5249924E3,5.3756523E3,5.320021E2,5.017779E2,2.2981812E2,8.508343E2,4.2290405E3,9.319902E3,5.972534E3,9.450732E2,5.6483706E3,1.5899229E3,2.0540283E3,3.352928E3,1.7225784E3,2.6736792E3,4.6814717E3,2.0690908E3,6.0211053E2,2.2610857E3,1.2944953E4,2.9760676E3,2.0432845E3,1.9246974E3,4.2068665E2,4.163767E3,1.9453175E3,3.0197988E3,7.281727E2,1.6045632E3],"tree_param":{"num_deleted":"0","num_feature":"17","num_nodes":"127","size_leaf_vector":"1"}},{"base_weights":[-2.967865E-3,2.1242718E-1,-3.2520625E-1,6.830127E-1,-7.750981E-3,9.066815E-2,-4.4264922E-1,1.4582624E-1,7.8645396E-1,-3.2614815E-1,1.162897E-1,2.892277E-1,-4.7213444E-1,-7.0355487E-1,-2.9943037E-1,6.4007634E-1,-2.6748064E-1,1.0129532E0,3.3903936E-1,-8.514584E-2,-5.091135E-1,3.7634286E-1,-2.571773E-1,-2.717477E-1,1.0021324E0,-1.1193663E-1,-8.8532406E-1,-4.5807943E-1,-8.3577734E-1,-1.0282204E-1,-7.2334784E-1,8.6436206E-1,7.416985E-2,-1.1228358E-1,-8.1573063E-1,1.2351002E0,7.6071936E-1,1.03590496E-1,8.1495583E-1,1.915447E-1,-3.6191934E-1,-2.2525124E-1,-6.367245E-1,7.8482914E-1,1.11933865E-1,-4.5250064E-1,1.2372365E-2,3.3183748E-1,-4.8182794E-1,1.1362438E0,1.7060064E-1,1.4606895E0,-2.2854505E-1,-9.557632E-1,-1.5867826E-1,-2.2160403E-2,-5.7908314E-1,-3.5458386E-1,-9.087074E-1,9.3544066E-2,-5.395656E-1,-3.8379058E-1,-8.5414755E-1,5.822251E-2,1.1547092E-1,-2.1951346E-2,8.907548E-2,-5.8431126E-2,4.2049896E-2,-1.7472012E-2,-1.0881724E-1,1.2698576E-1,1.08830385E-1,1.11762874E-1,3.8592063E-2,9.107791E-2,-1.0402977E-2,1.2873186E-1,2.363585E-2,-1.2617963E-2,7.015714E-2,-7.1027346E-2,2.1580094E-2,-4.2101953E-2,1.7700419E-2,-1.791929E-2,-6.985926E-2,6.7834244E-3,1.1910212E-1,5.974853E-2,-3.701234E-3,-2.7544547E-2,-7.80695E-2,6.339117E-2,-3.2469947E-2,7.883659E-2,-3.5536572E-2,-6.454455E-2,2.8141124E-2,5.0752994E-2,1.2302657E-1,-6.6752516E-2,9.944282E-2,2.5972078E-2,2.3274533E-1,-6.2378056E-2,3.989779E-2,-3.367124E-2,-1.0004651E-1,1.3705444E-1,-7.863206E-2,-5.0611258E-2,7.8290366E-2,-2.3658121E-2,-6.938897E-2,-6.28123E-2,6.2327135E-2,-6.731366E-2,-1.066977E-1,-4.7114184E-3,6.725436E-2,-6.400334E-2,1.0774276E-2,-6.837361E-2,3.539525E-5,-3.681207E-2,-9.40567E-2],"categories":[],"categories_nodes":[],"categories_segments":[],"categories_sizes":[],"default_left":[0,0,0,0,0,0,0,0,0,0,0,0,0,0,0,0,0,0,0,0,0,0,0,0,0,0,0,0,0,0,0,0,0,0,0,0,0,0,0,0,0,0,0,0,0,0,0,0,0,0,0,0,0,0,0,0,0,0,0,0,0,0,0,0,0,0,0,0,0,0,0,0,0,0,0,0,0,0,0,0,0,0,0,0,0,0,0,0,0,0,0,0,0,0,0,0,0,0,0,0,0,0,0,0,0,0,0,0,0,0,0,0,0,0,0,0,0,0,0,0,0,0,0,0,0,0,0],"id":10,"left_children":[1,3,5,7,9,11,13,15,17,19,21,23,25,27,29,31,33,35,37,39,41,43,45,47,49,51,53,55,57,59,61,63,65,67,69,71,73,75,77,79,81,83,85,87,89,91,93,95,97,99,101,103,105,107,109,111,113,115,117,119,121,123,125,-1,-1,-1,-1,-1,-1,-1,-1,-1,-1,-1,-1,-1,-1,-1,-1,-1,-1,-1,-1,-1,-1,-1,-1,-1,-1,-1,-1,-1,-1,-1,-1,-1,-1,-1,-1,-1,-1,-1,-1,-1,-1,-1,-1,-1,-1,-1,-1,-1,-1,-1,-1,-1,-1,-1,-1,-1,-1,-1,-1,-1,-1,-1,-1],"loss_changes":[1.1224261E4,1.0042662E4,3.1643828E3,1.7166055E3,2.6079006E3,1.5945747E3,1.8875889E3,1.0194548E3,2.6249219E3,8.162749E2,4.615285E3,4.2184653E3,5.537547E2,5.8071875E2,2.7185356E3,2.883902E2,2.3118051E2,9.6274023E2,9.757159E2,6.119822E2,3.810498E2,3.0256187E3,1.0270352E3,7.487356E2,5.178076E2,3.651401E2,8.855347E1,3.3070483E2,4.0798096E2,1.9112274E3,4.586787E2,1.3264746E2,1.5515424E2,5.332903E2,1.0450751E2,4.526758E1,1.0772715E3,9.766611E2,7.874082E2,6.477087E2,8.0414557E2,2.5720068E2,2.0535547E2,3.205767E3,1.2300009E3,6.5704224E2,1.7175305E3,4.786601E2,5.4711646E2,2.3581055E2,4.4690768E2,1.4248477E2,4.597967E2,4.3377808E1,1.492243E2,5.3155084E2,1.9280591E2,4.104221E2,3.7595312E2,1.2520851E3,4.4958252E2,3.3135196E2,3.129878E2,0E0,0E0,0E0,0E0,0E0,0E0,0E0,0E0,0E0,0E0,0E0,0E0,0E0,0E0,0E0,0E0,0E0,0E0,0E0,0E0,0E0,0E0,0E0,0E0,0E0,0E0,0E0,0E0,0E0,0E0,0E0,0E0,0E0,0E0,0E0,0E0,0E0,0E0,0E0,0E0,0E0,0E0,0E0,0E0,0E0,0E0,0E0,0E0,0E0,0E0,0E0,0E0,0E0,0E0,0E0,0E0,0E0,0E0,0E0,0E0,0E0,0E0,0E0,0E0],"parents":[2147483647,0,0,1,1,2,2,3,3,4,4,5,5,6,6,7,7,8,8,9,9,10,10,11,11,12,12,13,13,14,14,15,15,16,16,17,17,18,18,19,19,20,20,21,21,22,22,23,23,24,24,25,25,26,26,27,27,28,28,29,29,30,30,31,31,32,32,33,33,34,34,35,35,36,36,37,37,38,38,39,39,40,40,41,41,42,42,43,43,44,44,45,45,46,46,47,47,48,48,49,49,50,50,51,51,52,52,53,53,54,54,55,55,56,56,57,57,58,58,59,59,60,60,61,61,62,62],"right_children":[2,4,6,8,10,12,14,16,18,20,22,24,26,28,30,32,34,36,38,40,42,44,46,48,50,52,54,56,58,60,62,64,66,68,70,72,74,76,78,80,82,84,86,88,90,92,94,96,98,100,102,104,106,108,110,112,114,116,118,120,122,124,126,-1,-1,-1,-1,-1,-1,-1,-1,-1,-1,-1,-1,-1,-1,-1,-1,-1,-1,-1,-1,-1,-1,-1,-1,-1,-1,-1,-1,-1,-1,-1,-1,-1,-1,-1,-1,-1,-1,-1,-1,-1,-1,-1,-1,-1,-1,-1,-1,-1,-1,-1,-1,-1,-1,-1,-1,-1,-1,-1,-1,-1,-1,-1,-1],"split_conditions":[2.386533E0,-1.6234524E0,-1.9174198E0,-2.3011605E-1,-2.657035E0,5.307942E-1,-1.9845543E0,-2.8028238E-1,1.5878626E0,-9.8476946E-1,3.5691068E-1,-1.8084916E0,-1.2135173E0,-1.641746E0,9.119432E-1,-6.5011144E-1,1.0022031E0,-1.9661584E0,9.7801024E-1,7.8471124E-1,1.0799878E-1,-1.4798231E0,5.204749E-1,-1.5302602E0,2.379497E-1,-2.4018302E0,2.3574045E0,-1.6609652E0,-2.1577332E0,-6.691743E-1,-1.8032445E0,-4.6343118E-1,-3.5794216E-1,-1.6032676E0,-2.196103E0,-2.051659E0,7.635684E-1,-2.0502028E0,-1.0981803E0,-9.363961E-1,8.4614E-1,1.1090535E0,-2.202622E0,-1.6032676E0,-1.4856163E0,-6.198522E-1,1.120101E0,-1.0411298E0,2.0716414E0,-1.5734228E0,-4.430047E-2,1.4446424E0,1.0853747E0,-2.2924137E0,-1.7752583E0,-3.0407968E0,-1.8513104E0,1.8293473E0,-1.5174628E0,1.7191837E0,2.0276475E0,5.637517E-1,-2.109526E0,5.822251E-2,1.1547092E-1,-2.1951346E-2,8.907548E-2,-5.8431126E-2,4.2049896E-2,-1.7472012E-2,-1.0881724E-1,1.2698576E-1,1.08830385E-1,1.11762874E-1,3.8592063E-2,9.107791E-2,-1.0402977E-2,1.2873186E-1,2.363585E-2,-1.2617963E-2,7.015714E-2,-7.1027346E-2,2.1580094E-2,-4.2101953E-2,1.7700419E-2,-1.791929E-2,-6.985926E-2,6.7834244E-3,1.1910212E-1,5.974853E-2,-3.701234E-3,-2.7544547E-2,-7.80695E-2,6.339117E-2,-3.2469947E-2,7.883659E-2,-3.5536572E-2,-6.454455E-2,2.8141124E-2,5.0752994E-2,1.2302657E-1,-6.6752516E-2,9.944282E-2,2.5972078E-2,2.3274533E-1,-6.2378056E-2,3.989779E-2,-3.367124E-2,-1.0004651E-1,1.3705444E-1,-7.863206E-2,-5.0611258E-2,7.8290366E-2,-2.3658121E-2,-6.938897E-2,-6.28123E-2,6.2327135E-2,-6.731366E-2,-1.066977E-1,-4.7114184E-3,6.725436E-2,-6.400334E-2,1.0774276E-2,-6.837361E-2,3.539525E-5,-3.681207E-2,-9.40567E-2],"split_indices":[7,8,1,7,0,0,0,9,7,8,0,0,3,3,0,10,0,8,9,7,14,1,2,2,0,2,9,2,8,1,3,7,7,0,8,8,7,9,10,10,9,9,9,0,2,8,0,3,2,0,2,0,2,8,8,0,10,9,10,2,2,2,8,0,0,0,0,0,0,0,0,0,0,0,0,0,0,0,0,0,0,0,0,0,0,0,0,0,0,0,0,0,0,0,0,0,0,0,0,0,0,0,0,0,0,0,0,0,0,0,0,0,0,0,0,0,0,0,0,0,0,0,0,0,0,0,0],"split_type":[0,0,0,0,0,0,0,0,0,0,0,0,0,0,0,0,0,0,0,0,0,0,0,0,0,0,0,0,0,0,0,0,0,0,0,0,0,0,0,0,0,0,0,0,0,0,0,0,0,0,0,0,0,0,0,0,0,0,0,0,0,0,0,0,0,0,0,0,0,0,0,0,0,0,0,0,0,0,0,0,0,0,0,0,0,0,0,0,0,0,0,0,0,0,0,0,0,0,0,0,0,0,0,0,0,0,0,0,0,0,0,0,0,0,0,0,0,0,0,0,0,0,0,0,0,0,0],"sum_hessian":[1.6171095E5,9.692401E4,6.478695E4,3.0893469E4,6.603053E4,1.4266924E4,5.0520023E4,4.9887134E3,2.5904756E4,1.8511686E4,4.751885E4,1.0546539E4,3.720385E3,1.7902549E4,3.2617475E4,2.2716401E3,2.7170735E3,1.7197451E4,8.707305E3,7.9894414E3,1.0522244E4,2.8012873E4,1.9505977E4,5.902532E3,4.644007E3,1.9883302E3,1.7320548E3,6.268791E3,1.1633759E4,2.2283754E4,1.0333721E4,1.626487E3,6.4515295E2,2.1185618E3,5.985117E2,9.142015E3,8.0554365E3,5.826161E3,2.8811433E3,3.9954736E3,3.9939678E3,3.2641414E3,7.2581025E3,1.1006668E4,1.7006205E4,1.1309855E4,8.196122E3,1.5238248E3,4.3787075E3,3.9987178E3,6.4528906E2,1.3645943E2,1.8518708E3,1.578704E3,1.5335078E2,1.3622896E3,4.9065015E3,1.5319297E3,1.0101829E4,1.5372738E4,6.911015E3,2.874757E3,7.4589634E3,8.264306E2,8.000565E2,4.750377E2,1.7011528E2,1.123278E3,9.952838E2,1.7899872E2,4.1951297E2,7.385646E3,1.7563688E3,4.1251763E3,3.9302605E3,1.1912844E3,4.634877E3,1.585515E3,1.2956282E3,2.462313E3,1.5331606E3,2.4914453E3,1.5025223E3,2.1955647E3,1.0685765E3,8.650104E2,6.3930923E3,3.9809004E3,7.0257676E3,3.9914429E3,1.3014762E4,7.3477246E3,3.9621309E3,2.8816533E3,5.3144683E3,9.1549115E2,6.083337E2,3.6058638E3,7.728438E2,5.210322E2,3.4776855E3,3.1996277E2,3.253263E2,5.7746624E1,7.87128E1,1.1362362E3,7.156346E2,1.0689575E2,1.4718082E3,4.4280254E1,1.09070526E2,8.510594E2,5.1123026E2,1.2325377E3,3.6739639E3,1.1973485E3,3.3458118E2,4.061655E3,6.040174E3,1.2368851E4,3.003887E3,5.982492E3,9.2852295E2,1.6138557E3,1.2609015E3,1.126838E3,6.3321255E3],"tree_param":{"num_deleted":"0","num_feature":"17","num_nodes":"127","size_leaf_vector":"1"}},{"base_weights":[-2.771315E-3,1.8273027E-1,-3.2538903E-1,4.7112715E-1,-1.2506846E-1,-6.080535E-1,-1.707794E-1,7.6300144E-1,3.1179664E-1,-3.8969254E-1,9.064426E-3,-3.3886645E-2,-6.6696924E-1,1.0890075E-1,-5.9251696E-1,4.7765408E-2,8.640259E-1,5.3194094E-1,1.1587868E-1,-1.3164148E-1,-5.234578E-1,3.0583727E-1,-3.3614117E-1,7.076627E-1,-3.0155998E-1,-4.4513E-1,-8.175025E-1,7.4098927E-1,-1.4158663E-1,-7.939845E-1,-2.5906262E-1,3.9663813E-1,-3.194394E-1,1.1377143E0,4.118399E-1,4.4077087E-2,8.159434E-1,-7.0202686E-2,6.274809E-1,3.970213E-1,-2.727431E-1,-6.4618653E-1,-2.1154806E-1,5.693217E-1,-2.327506E-1,-5.687868E-1,-3.975815E-2,-1.6781203E-1,1.1836059E0,-5.105033E-1,6.128259E-1,2.2151606E-2,-5.81042E-1,-8.893993E-1,-3.489452E-1,8.433676E-1,1.0721918E-1,4.1765332E-1,-3.3941877E-1,-8.767998E-1,-2.4623142E-1,3.0598965E-1,-7.417889E-1,8.420225E-2,-1.8057337E-2,1.7832516E-2,-5.2564945E-2,6.7453586E-2,1.17758475E-1,1.2789616E-1,2.9466817E-2,8.0779515E-2,-5.5384394E-2,6.1483677E-2,1.12435155E-1,1.2716636E-2,-6.468761E-2,1.278009E-1,-7.4387033E-4,1.2176317E-1,-6.6055506E-3,4.063181E-3,-4.323021E-2,-2.7177269E-2,-8.59541E-2,-1.1281389E-1,-2.0373191E-3,-1.3637656E-3,8.0135666E-2,4.1861102E-2,-3.7765965E-2,-6.9142796E-2,-1.229546E-2,5.4173876E-2,-4.2716872E-2,4.0328763E-2,-9.456317E-2,1.3840955E-1,2.896052E-2,-8.2911074E-2,-9.626226E-3,4.8973425E-3,1.6322537E-1,-4.0463775E-2,7.0222594E-2,-2.3161197E-2,-6.9967866E-2,-5.4642547E-2,-9.560315E-2,3.9159276E-2,-8.3394416E-2,5.1615387E-2,1.22383095E-1,-7.579857E-2,9.872189E-2,7.5939395E-2,-9.627153E-2,-6.9971345E-2,1.3653236E-2,-5.8266904E-2,-9.560906E-2,8.602924E-2,-8.486554E-2,1.0236378E-1,-6.958941E-2,-2.3657652E-2,-8.7964624E-2],"categories":[],"categories_nodes":[],"categories_segments":[],"categories_sizes":[],"default_left":[0,0,0,0,0,0,0,0,0,0,0,0,0,0,0,0,0,0,0,0,0,0,0,0,0,0,0,0,0,0,0,0,0,0,0,0,0,0,0,0,0,0,0,0,0,0,0,0,0,0,0,0,0,0,0,0,0,0,0,0,0,0,0,0,0,0,0,0,0,0,0,0,0,0,0,0,0,0,0,0,0,0,0,0,0,0,0,0,0,0,0,0,0,0,0,0,0,0,0,0,0,0,0,0,0,0,0,0,0,0,0,0,0,0,0,0,0,0,0,0,0,0,0,0,0,0,0],"id":11,"left_children":[1,3,5,7,9,11,13,15,17,19,21,23,25,27,29,31,33,35,37,39,41,43,45,47,49,51,53,55,57,59,61,63,65,67,69,71,73,75,77,79,81,83,85,87,89,91,93,95,97,99,101,103,105,107,109,111,113,115,117,119,121,123,125,-1,-1,-1,-1,-1,-1,-1,-1,-1,-1,-1,-1,-1,-1,-1,-1,-1,-1,-1,-1,-1,-1,-1,-1,-1,-1,-1,-1,-1,-1,-1,-1,-1,-1,-1,-1,-1,-1,-1,-1,-1,-1,-1,-1,-1,-1,-1,-1,-1,-1,-1,-1,-1,-1,-1,-1,-1,-1,-1,-1,-1,-1,-1,-1],"loss_changes":[9.473134E3,8.921557E3,2.525398E3,2.412749E3,1.7256582E3,6.91145E2,4.4063984E3,1.3238281E3,1.4476631E3,5.6443384E2,3.3055142E3,3.77847E2,6.1845215E2,3.556574E3,1.0004946E3,2.9075974E2,1.9863652E3,2.1899087E3,1.6909517E3,4.1668253E2,4.1215186E2,2.4622317E3,1.0284419E3,2.1057623E2,2.6752383E2,4.7590588E2,3.7154736E2,4.1356592E2,1.780055E3,4.2097754E2,1.5308992E3,2.9934705E2,1.13602104E2,1.8388477E2,6.147976E2,2.6565708E3,6.1891895E2,1.4825917E3,1.9567039E3,4.473114E2,2.204534E2,6.1714795E2,5.331436E2,1.5759509E3,5.3818896E2,4.5681274E2,1.4781376E3,7.975766E1,5.8246613E1,1.5024683E2,1.4971521E2,4.906177E2,2.4048279E2,2.1816504E2,5.283212E2,6.826492E2,6.766835E2,1.98409E3,2.0380995E3,1.8754004E2,8.145398E2,1.8601078E3,2.1058545E2,0E0,0E0,0E0,0E0,0E0,0E0,0E0,0E0,0E0,0E0,0E0,0E0,0E0,0E0,0E0,0E0,0E0,0E0,0E0,0E0,0E0,0E0,0E0,0E0,0E0,0E0,0E0,0E0,0E0,0E0,0E0,0E0,0E0,0E0,0E0,0E0,0E0,0E0,0E0,0E0,0E0,0E0,0E0,0E0,0E0,0E0,0E0,0E0,0E0,0E0,0E0,0E0,0E0,0E0,0E0,0E0,0E0,0E0,0E0,0E0,0E0,0E0,0E0,0E0],"parents":[2147483647,0,0,1,1,2,2,3,3,4,4,5,5,6,6,7,7,8,8,9,9,10,10,11,11,12,12,13,13,14,14,15,15,16,16,17,17,18,18,19,19,20,20,21,21,22,22,23,23,24,24,25,25,26,26,27,27,28,28,29,29,30,30,31,31,32,32,33,33,34,34,35,35,36,36,37,37,38,38,39,39,40,40,41,41,42,42,43,43,44,44,45,45,46,46,47,47,48,48,49,49,50,50,51,51,52,52,53,53,54,54,55,55,56,56,57,57,58,58,59,59,60,60,61,61,62,62],"right_children":[2,4,6,8,10,12,14,16,18,20,22,24,26,28,30,32,34,36,38,40,42,44,46,48,50,52,54,56,58,60,62,64,66,68,70,72,74,76,78,80,82,84,86,88,90,92,94,96,98,100,102,104,106,108,110,112,114,116,118,120,122,124,126,-1,-1,-1,-1,-1,-1,-1,-1,-1,-1,-1,-1,-1,-1,-1,-1,-1,-1,-1,-1,-1,-1,-1,-1,-1,-1,-1,-1,-1,-1,-1,-1,-1,-1,-1,-1,-1,-1,-1,-1,-1,-1,-1,-1,-1,-1,-1,-1,-1,-1,-1,-1,-1,-1,-1,-1,-1,-1,-1,-1,-1,-1,-1,-1],"split_conditions":[2.5765636E0,-1.1760535E0,-2.0136487E0,-1.9477128E0,-2.1881328E0,-2.2424557E0,5.307942E-1,-3.3603644E-1,8.473844E-1,-1.62273E0,2.681079E-1,-1.5522991E0,-1.5173863E0,-1.7279253E0,8.891269E-1,-2.051925E-2,1.6508547E0,-1.4619324E-1,1.348518E0,-1.682918E0,1.348518E0,-8.117873E-1,4.5465264E-1,-3.8011992E0,2.0276475E0,-1.6609652E0,2.1593785E0,2.0849104E-1,-1.377253E0,2.1376588E0,1.4147165E0,-9.840579E-1,-1.7753114E0,-2.0855565E-1,-2.1590347E0,-3.9010122E-1,-9.744965E-1,6.4873093E-1,-1.2499121E0,-1.585288E0,1.1624788E-1,4.235731E-1,-1.0415096E-1,-1.5149833E0,-1.8157579E0,1.6778384E0,1.1486479E0,-1.1275257E0,-4.6935296E-1,-3.1288178E0,-2.923511E0,-3.0697577E0,-1.8605391E0,-2.0712032E0,-1.6234524E0,-9.074138E-1,-3.07236E-3,3.291612E-2,-5.5521274E-1,-1.9276694E0,-1.6899929E0,-1.0889733E0,-1.9949497E0,8.420225E-2,-1.8057337E-2,1.7832516E-2,-5.2564945E-2,6.7453586E-2,1.17758475E-1,1.2789616E-1,2.9466817E-2,8.0779515E-2,-5.5384394E-2,6.1483677E-2,1.12435155E-1,1.2716636E-2,-6.468761E-2,1.278009E-1,-7.4387033E-4,1.2176317E-1,-6.6055506E-3,4.063181E-3,-4.323021E-2,-2.7177269E-2,-8.59541E-2,-1.1281389E-1,-2.0373191E-3,-1.3637656E-3,8.0135666E-2,4.1861102E-2,-3.7765965E-2,-6.9142796E-2,-1.229546E-2,5.4173876E-2,-4.2716872E-2,4.0328763E-2,-9.456317E-2,1.3840955E-1,2.896052E-2,-8.2911074E-2,-9.626226E-3,4.8973425E-3,1.6322537E-1,-4.0463775E-2,7.0222594E-2,-2.3161197E-2,-6.9967866E-2,-5.4642547E-2,-9.560315E-2,3.9159276E-2,-8.3394416E-2,5.1615387E-2,1.22383095E-1,-7.579857E-2,9.872189E-2,7.5939395E-2,-9.627153E-2,-6.9971345E-2,1.3653236E-2,-5.8266904E-2,-9.560906E-2,8.602924E-2,-8.486554E-2,1.0236378E-1,-6.958941E-2,-2.3657652E-2,-8.7964624E-2],"split_indices":[7,8,0,8,0,1,0,7,7,3,0,2,3,1,2,9,7,7,9,2,9,1,2,0,2,2,9,0,2,9,0,10,1,7,9,9,10,0,10,1,14,7,7,0,2,9,0,3,3,0,0,0,10,10,8,0,2,0,0,10,8,3,3,0,0,0,0,0,0,0,0,0,0,0,0,0,0,0,0,0,0,0,0,0,0,0,0,0,0,0,0,0,0,0,0,0,0,0,0,0,0,0,0,0,0,0,0,0,0,0,0,0,0,0,0,0,0,0,0,0,0,0,0,0,0,0,0],"split_type":[0,0,0,0,0,0,0,0,0,0,0,0,0,0,0,0,0,0,0,0,0,0,0,0,0,0,0,0,0,0,0,0,0,0,0,0,0,0,0,0,0,0,0,0,0,0,0,0,0,0,0,0,0,0,0,0,0,0,0,0,0,0,0,0,0,0,0,0,0,0,0,0,0,0,0,0,0,0,0,0,0,0,0,0,0,0,0,0,0,0,0,0,0,0,0,0,0,0,0,0,0,0,0,0,0,0,0,0,0,0,0,0,0,0,0,0,0,0,0,0,0,0,0,0,0,0,0],"sum_hessian":[1.5828961E5,1.0050232E5,5.778728E4,5.18862E4,4.8616125E4,2.0431156E4,3.7356125E4,1.832084E4,3.356536E4,1.635273E4,3.2263395E4,1.9015035E3,1.8529652E4,2.2461355E4,1.4894768E4,2.267661E3,1.6053179E4,1.5804655E4,1.7760703E4,5.583465E3,1.0769266E4,1.7348781E4,1.4914613E4,5.0389453E2,1.397609E3,7.492296E3,1.1037357E4,6.374291E3,1.6087064E4,9.284093E3,5.6106753E3,1.1628163E3,1.1048447E3,9.99944E3,6.0537383E3,5.81563E3,9.989025E3,1.3024323E4,4.7363794E3,1.1759061E3,4.4075586E3,7.7275835E3,3.0416824E3,1.1649589E4,5.6991924E3,8.355248E3,6.559365E3,1.7768991E2,3.2620462E2,1.1380082E3,2.5960083E2,1.6883577E3,5.803938E3,9.568275E3,1.4690817E3,5.4875146E3,8.867762E2,4.203455E3,1.1883609E4,8.0642495E3,1.219843E3,2.5850857E3,3.0255896E3,6.5610095E2,5.0671533E2,3.2367355E2,7.811712E2,7.939532E2,9.205487E3,7.1946576E2,5.334273E3,2.553597E3,3.2620327E3,6.048146E3,3.9408794E3,9.703899E3,3.3204236E3,2.338934E3,2.3974456E3,4.2360812E2,7.5229803E2,1.4872784E3,2.92028E3,2.8058672E3,4.9217163E3,5.2407855E2,2.5176038E3,3.316993E3,8.332596E3,1.036822E3,4.6623706E3,6.552274E3,1.8029745E3,2.622555E3,3.9368103E3,1.0273797E2,7.4951935E1,2.660024E2,6.0202217E1,6.4269055E2,4.9531757E2,1.6782419E2,9.177665E1,1.0376022E3,6.507555E2,1.4718208E3,4.332117E3,1.5580054E3,8.01027E3,5.8145654E2,8.876251E2,2.9514802E3,2.5360344E3,4.472168E2,4.395594E2,3.3696694E3,8.337858E2,6.7633154E3,5.1202944E3,1.7141007E3,6.3501484E3,4.2985797E2,7.8998505E2,1.5061853E3,1.0789004E3,6.4918933E2,2.3764004E3],"tree_param":{"num_deleted":"0","num_feature":"17","num_nodes":"127","size_leaf_vector":"1"}},{"base_weights":[-2.7426863E-3,2.3298278E-1,-2.2157028E-1,7.44901E-1,3.964422E-2,-4.122172E-2,-4.2770886E-1,1.3633989E-1,9.2403644E-1,1.7916963E-1,-2.616883E-1,-5.490797E-1,9.591531E-2,-2.0193075E-1,-5.7827556E-1,5.259477E-1,-2.7433047E-1,1.1624509E0,6.922183E-1,6.834605E-1,8.980698E-2,1.7302409E-1,-3.66199E-1,-1.6189765E-2,-6.444815E-1,3.8910744E-1,-4.0516338E-1,-4.155745E-1,1.9342384E-1,1.7265826E-2,-6.332084E-1,2.3636222E-1,9.28487E-1,2.5927377E-1,-4.7855347E-1,7.8616416E-1,1.1981173E0,1.0681543E0,3.765355E-1,1.1212962E0,2.4883258E-1,3.7132332E-1,-8.504293E-2,3.8625225E-1,-3.411614E-1,-1.9397187E-1,-6.1582124E-1,-2.9756618E-1,7.7372175E-1,-3.0743706E-1,-7.835067E-1,1.4720327E-1,9.368446E-1,-6.4359194E-1,-1.0083824E-1,1.12415396E-1,-4.8142135E-1,7.247129E-1,-1.9624782E-1,5.0783926E-1,-5.59003E-1,-4.528592E-1,-7.735429E-1,6.742882E-2,-1.0862287E-2,1.2265434E-1,7.29258E-2,-3.7823383E-2,1.169097E-1,-2.9934158E-3,-7.198041E-2,1.1946044E-1,1.2328147E-2,1.2393635E-1,1.0213139E-1,1.1666262E-1,6.602683E-2,2.0932028E-2,8.970793E-2,4.9382236E-2,1.2551214E-1,7.5274944E-2,-7.6772943E-3,2.1158298E-2,6.560532E-2,-2.1055473E-2,3.4539737E-2,-1.1956471E-2,1.20540105E-1,1.8835306E-2,-7.628628E-2,4.7269627E-2,-3.1730417E-2,-3.4566704E-2,-7.736632E-2,9.4165675E-2,-5.219548E-2,1.2284831E-1,-2.2057312E-2,8.309531E-2,-4.4083506E-2,-4.4637203E-2,-9.241689E-2,6.414558E-2,-1.2206486E-2,1.0617133E-1,3.5408504E-2,-7.573887E-2,-1.5143913E-2,4.4833716E-2,-6.386157E-2,1.03931166E-1,-4.2918663E-2,-5.772754E-2,-6.1426177E-3,1.21970534E-1,5.2729584E-2,-4.4118598E-2,4.129346E-2,1.7492509E-1,2.4495622E-2,-7.845988E-2,1.0821995E-2,-1.0566176E-2,-5.3076234E-2,-5.9221346E-2,-9.475003E-2],"categories":[],"categories_nodes":[],"categories_segments":[],"categories_sizes":[],"default_left":[0,0,0,0,0,0,0,0,0,0,0,0,0,0,0,0,0,0,0,0,0,0,0,0,0,0,0,0,0,0,0,0,0,0,0,0,0,0,0,0,0,0,0,0,0,0,0,0,0,0,0,0,0,0,0,0,0,0,0,0,0,0,0,0,0,0,0,0,0,0,0,0,0,0,0,0,0,0,0,0,0,0,0,0,0,0,0,0,0,0,0,0,0,0,0,0,0,0,0,0,0,0,0,0,0,0,0,0,0,0,0,0,0,0,0,0,0,0,0,0,0,0,0,0,0,0,0],"id":12,"left_children":[1,3,5,7,9,11,13,15,17,19,21,23,25,27,29,31,33,35,37,39,41,43,45,47,49,51,53,55,57,59,61,63,65,67,69,71,73,75,77,79,81,83,85,87,89,91,93,95,97,99,101,103,105,107,109,111,113,115,117,119,121,123,125,-1,-1,-1,-1,-1,-1,-1,-1,-1,-1,